{"learner":{"attributes":{},"feature_names":[],"feature_types":[],"gradient_booster":{"model":{"cats":{"enc":[],"feature_segments":[],"sorted_idx":[]},"gbtree_model_param":{"num_parallel_tree":"1","num_trees":"561"},"iteration_indptr":[0,1,2,3,4,5,6,7,8,9,10,11,12,13,14,15,16,17,18,19,20,21,22,23,24,25,26,27,28,29,30,31,32,33,34,35,36,37,38,39,40,41,42,43,44,45,46,47,48,49,50,51,52,53,54,55,56,57,58,59,60,61,62,63,64,65,66,67,68,69,70,71,72,73,74,75,76,77,78,79,80,81,82,83,84,85,86,87,88,89,90,91,92,93,94,95,96,97,98,99,100,101,102,103,104,105,106,107,108,109,110,111,112,113,114,115,116,117,118,119,120,121,122,123,124,125,126,127,128,129,130,131,132,133,134,135,136,137,138,139,140,141,142,143,144,145,146,147,148,149,150,151,152,153,154,155,156,157,158,159,160,161,162,163,164,165,166,167,168,169,170,171,172,173,174,175,176,177,178,179,180,181,182,183,184,185,186,187,188,189,190,191,192,193,194,195,196,197,198,199,200,201,202,203,204,205,206,207,208,209,210,211,212,213,214,215,216,217,218,219,220,221,222,223,224,225,226,227,228,229,230,231,232,233,234,235,236,237,238,239,240,241,242,243,244,245,246,247,248,249,250,251,252,253,254,255,256,257,258,259,260,261,262,263,264,265,266,267,268,269,270,271,272,273,274,275,276,277,278,279,280,281,282,283,284,285,286,287,288,289,290,291,292,293,294,295,296,297,298,299,300,301,302,303,304,305,306,307,308,309,310,311,312,313,314,315,316,317,318,319,320,321,322,323,324,325,326,327,328,329,330,331,332,333,334,335,336,337,338,339,340,341,342,343,344,345,346,347,348,349,350,351,352,353,354,355,356,357,358,359,360,361,362,363,364,365,366,367,368,369,370,371,372,373,374,375,376,377,378,379,380,381,382,383,384,385,386,387,388,389,390,391,392,393,394,395,396,397,398,399,400,401,402,403,404,405,406,407,408,409,410,411,412,413,414,415,416,417,418,419,420,421,422,423,424,425,426,427,428,429,430,431,432,433,434,435,436,437,438,439,440,441,442,443,444,445,446,447,448,449,450,451,452,453,454,455,456,457,458,459,460,461,462,463,464,465,466,467,468,469,470,471,472,473,474,475,476,477,478,479,480,481,482,483,484,485,486,487,488,489,490,491,492,493,494,495,496,497,498,499,500,501,502,503,504,505,506,507,508,509,510,511,512,513,514,515,516,517,518,519,520,521,522,523,524,525,526,527,528,529,530,531,532,533,534,535,536,537,538,539,540,541,542,543,544,545,546,547,548,549,550,551,552,553,554,555,556,557,558,559,560,561],"tree_info":[0,0,0,0,0,0,0,0,0,0,0,0,0,0,0,0,0,0,0,0,0,0,0,0,0,0,0,0,0,0,0,0,0,0,0,0,0,0,0,0,0,0,0,0,0,0,0,0,0,0,0,0,0,0,0,0,0,0,0,0,0,0,0,0,0,0,0,0,0,0,0,0,0,0,0,0,0,0,0,0,0,0,0,0,0,0,0,0,0,0,0,0,0,0,0,0,0,0,0,0,0,0,0,0,0,0,0,0,0,0,0,0,0,0,0,0,0,0,0,0,0,0,0,0,0,0,0,0,0,0,0,0,0,0,0,0,0,0,0,0,0,0,0,0,0,0,0,0,0,0,0,0,0,0,0,0,0,0,0,0,0,0,0,0,0,0,0,0,0,0,0,0,0,0,0,0,0,0,0,0,0,0,0,0,0,0,0,0,0,0,0,0,0,0,0,0,0,0,0,0,0,0,0,0,0,0,0,0,0,0,0,0,0,0,0,0,0,0,0,0,0,0,0,0,0,0,0,0,0,0,0,0,0,0,0,0,0,0,0,0,0,0,0,0,0,0,0,0,0,0,0,0,0,0,0,0,0,0,0,0,0,0,0,0,0,0,0,0,0,0,0,0,0,0,0,0,0,0,0,0,0,0,0,0,0,0,0,0,0,0,0,0,0,0,0,0,0,0,0,0,0,0,0,0,0,0,0,0,0,0,0,0,0,0,0,0,0,0,0,0,0,0,0,0,0,0,0,0,0,0,0,0,0,0,0,0,0,0,0,0,0,0,0,0,0,0,0,0,0,0,0,0,0,0,0,0,0,0,0,0,0,0,0,0,0,0,0,0,0,0,0,0,0,0,0,0,0,0,0,0,0,0,0,0,0,0,0,0,0,0,0,0,0,0,0,0,0,0,0,0,0,0,0,0,0,0,0,0,0,0,0,0,0,0,0,0,0,0,0,0,0,0,0,0,0,0,0,0,0,0,0,0,0,0,0,0,0,0,0,0,0,0,0,0,0,0,0,0,0,0,0,0,0,0,0,0,0,0,0,0,0,0,0,0,0,0,0,0,0,0,0,0,0,0,0,0,0,0,0,0,0,0,0,0,0,0,0,0,0,0,0,0,0,0,0,0,0,0,0,0,0,0,0,0,0,0,0,0,0,0,0,0,0,0,0,0,0,0,0,0,0,0,0,0,0,0,0,0,0,0,0,0,0,0,0,0,0,0,0,0,0,0,0,0,0,0,0,0,0,0,0,0,0,0,0,0,0,0,0,0,0],"trees":[{"base_weights":[9.341429E-4,1.308637E0,-1.5295799E0,-2.300341E-1,1.9543641E0,-1.8545256E0,1.7085611E0,-7.188871E-1,1.3723557E0,3.0361447E-1,1.9681294E0,-1.8811378E0,2.7521032E-1,-2.5496706E-1,1.7385237E0,-1.2089939E0,9.660923E-1,-7.2156864E-1,1.6158607E0,-1.7037038E0,1.5642023E0,1.976509E0,-6.01227E-1,-1.8969634E0,1.2E0,1.5412371E0,2.7767164E-1,1.8891625E0,-1.6768429E0,1.8117647E0,-6.841244E-1,8.596491E-1,-2.7425572E-1,-8.907563E-1,1.7587794E0,-2.6978058E-1,-7.585797E-2,-2.086094E-1,1.8481013E0,1.3846154E0,1.9924598E0,-1.7522124E0,2.575425E-1,-1.9564357E0,-1.4214547E0,-1.4576272E0,1.8755555E0,-1.8165138E0,1.7923875E0,-1.372549E0,2.7673486E-1,-1.7274958E0,2.7072868E-1,-6.923077E-1,1.922807E0,-1.1516393E0,1.152E0,1.5053763E0,-2.539593E-1,2.5496706E-1,-1.5463917E0,1.8027961E0,-2.1854319E-1,9.271529E-2,2.704552E-1,3.3628318E-1,1.9342723E0,1.9935305E0,1.5714285E0,-1.1589412E-1,-2.661826E-1,-1.989132E0,-1.0327272E0,-8.815112E-2,-1.9644777E0,-9.271529E-2,-2.496181E-1,1.1589412E-1,2.7271864E-1,-1.8769231E0,-1.5452549E-1,-2.2857143E-1,1.8399433E0,-9.271529E-2,-2.4225609E-1,-1.826997E0,-9.6930534E-1,1.4463586E-1,-1.1807228E0,1.1020408E0,2.747618E-1,-1.532948E0,1.7565217E0,1.5098039E0,-4E-1,1.7391305E-1,2.6269332E-1,-1.7435898E0,-9.271529E-2,1.8391206E0,-1.5384616E-1,1.7692307E0,-8.7096775E-1,1.1111112E0,2.7403027E-1,2.7730405E-1,1.6361523E-1,8.972447E-3,2.683E-1,-1.8440722E0,-2.7805588E-1,1.4922049E0,-2.73991E-1,-1.3996627E0,5.837651E-1,-2.7679893E-1,-1.2156863E0,-1.6305104E-1,-2.7160126E-1,-2.263978E-1,2.4225609E-1,6.486486E-1,1.869281E0,-2.2779283E-1,-2.637232E-1,-1.7782275E-1,2.2795413E-1,-2.3399574E-1,4.6357647E-2,2.3263109E-1,-7.462451E-2,-2.5993395E-1,-4.941678E-2,1.3907294E-1,2.659197E-1,2.4064305E-1,-0E0,-2.2059846E-1,1.4463586E-1,-3.3377506E-2,7.7880844E-2,-1.8385914E-1,-2.671302E-1,2.2847699E-1,2.750381E-1,2.3364253E-1,-1.3175331E-1,9.271529E-2,2.718244E-1,2.5791708E-1,-2.2449338E-1,4.6357647E-2,2.3364253E-1,-2.0136194E-1,-2.7234635E-1,2.6566052E-1,-2.5675005E-1,-0E0,-2.4612056E-1,1.7478086E-1,-2.233288E-1,-7.585797E-2,-2.126998E-1,-2.3693909E-1,2.5633052E-1,2.3535421E-1,2.7579013E-1],"categories":[],"categories_nodes":[],"categories_segments":[],"categories_sizes":[],"default_left":[0,0,0,0,0,0,0,0,0,0,0,0,0,0,0,0,0,0,0,0,0,0,0,0,0,0,0,0,0,0,0,0,0,0,0,0,0,0,0,0,0,0,0,0,0,0,0,0,0,0,0,0,0,0,0,0,0,0,0,0,0,0,0,0,0,0,0,0,0,0,0,0,0,0,0,0,0,0,0,0,0,0,0,0,0,0,0,0,0,0,0,0,0,0,0,0,0,0,0,0,0,0,0,0,0,0,0,0,0,0,0,0,0,0,0,0,0,0,0,0,0,0,0,0,0,0,0,0,0,0,0,0,0,0,0,0,0,0,0,0,0,0,0,0,0,0,0,0,0,0,0,0,0,0,0,0,0,0,0,0,0,0,0,0,0,0,0],"id":0,"left_children":[1,3,5,7,9,11,13,15,17,19,21,23,-1,-1,25,27,29,31,33,35,37,39,41,43,45,47,-1,49,51,53,55,57,-1,59,61,-1,-1,-1,63,65,67,69,-1,71,73,75,77,79,81,83,-1,85,-1,87,89,91,93,95,-1,-1,97,99,-1,-1,-1,101,103,105,107,-1,-1,109,111,113,115,-1,-1,-1,-1,117,-1,119,121,-1,-1,123,125,-1,127,129,-1,131,133,135,137,139,-1,141,-1,143,145,147,149,151,-1,-1,-1,-1,-1,153,-1,155,-1,157,159,-1,161,-1,-1,-1,-1,163,165,-1,-1,-1,-1,-1,-1,-1,-1,-1,-1,-1,-1,-1,-1,-1,-1,-1,-1,-1,-1,-1,-1,-1,-1,-1,-1,-1,-1,-1,-1,-1,-1,-1,-1,-1,-1,-1,-1,-1,-1,-1,-1,-1,-1],"loss_changes":[6.5350098E4,1.7494336E4,1.5832758E4,4.0788223E3,2.8122656E2,1.3985391E3,1.4884326E2,3.2957764E3,6.2181836E2,2.6519403E2,2.66E2,6.643867E2,0E0,0E0,6.624072E1,4.483478E3,1.2565303E3,2.5379443E2,3.9231958E2,1.0019287E1,5.8664764E1,1.1299219E2,1.1830074E2,3.7926953E2,1.284101E2,6.576572E2,0E0,1.3607251E2,4.9635352E2,1.6677551E2,2.6357266E2,1.01601364E2,0E0,1.0910263E2,1.5414551E2,0E0,0E0,0E0,5.4654694E0,1.8662201E2,2.25E0,2.6041946E0,0E0,3.6052344E2,1.0898306E3,2.7379398E0,3.3736115E0,2.3692322E-1,6.985889E1,2.163187E0,0E0,1.9810986E2,0E0,2.3226175E1,2.255249E1,2.7326593E2,3.5310905E1,2.3415924E1,0E0,0E0,7.2513885E0,7.27251E1,0E0,0E0,0E0,1.9702272E2,4.1463013E0,1.6992188E0,1.8745277E1,0E0,0E0,1.3503906E1,9.792715E2,3.856925E2,1.8276855E1,0E0,0E0,0E0,0E0,3.21167E-1,0E0,5.1090214E1,2.3461914E1,0E0,0E0,2.7564453E1,2.5181332E2,0E0,1.632626E1,3.5264023E1,0E0,8.4927E1,1.4714813E0,1.6981056E1,2.3001379E1,1.972174E0,0E0,3.7397766E-1,0E0,2.3960205E1,2.9967936E1,9.321686E0,1.2858861E2,4.417776E0,0E0,0E0,0E0,0E0,0E0,3.2282227E1,0E0,1.6017134E2,0E0,7.6787476E1,4.2862115E2,0E0,7.208557E0,0E0,0E0,0E0,0E0,5.5122536E1,1.05078125E1,0E0,0E0,0E0,0E0,0E0,0E0,0E0,0E0,0E0,0E0,0E0,0E0,0E0,0E0,0E0,0E0,0E0,0E0,0E0,0E0,0E0,0E0,0E0,0E0,0E0,0E0,0E0,0E0,0E0,0E0,0E0,0E0,0E0,0E0,0E0,0E0,0E0,0E0,0E0,0E0,0E0,0E0,0E0,0E0],"parents":[2147483647,0,0,1,1,2,2,3,3,4,4,5,5,6,6,7,7,8,8,9,9,10,10,11,11,14,14,15,15,16,16,17,17,18,18,19,19,20,20,21,21,22,22,23,23,24,24,25,25,27,27,28,28,29,29,30,30,31,31,33,33,34,34,38,38,39,39,40,40,41,41,43,43,44,44,45,45,46,46,47,47,48,48,49,49,51,51,53,53,54,54,55,55,56,56,57,57,60,60,61,61,65,65,66,66,67,67,68,68,71,71,72,72,73,73,74,74,79,79,81,81,82,82,85,85,86,86,88,88,89,89,91,91,92,92,93,93,94,94,95,95,97,97,99,99,100,100,101,101,102,102,103,103,109,109,111,111,113,113,114,114,116,116,121,121,122,122],"right_children":[2,4,6,8,10,12,14,16,18,20,22,24,-1,-1,26,28,30,32,34,36,38,40,42,44,46,48,-1,50,52,54,56,58,-1,60,62,-1,-1,-1,64,66,68,70,-1,72,74,76,78,80,82,84,-1,86,-1,88,90,92,94,96,-1,-1,98,100,-1,-1,-1,102,104,106,108,-1,-1,110,112,114,116,-1,-1,-1,-1,118,-1,120,122,-1,-1,124,126,-1,128,130,-1,132,134,136,138,140,-1,142,-1,144,146,148,150,152,-1,-1,-1,-1,-1,154,-1,156,-1,158,160,-1,162,-1,-1,-1,-1,164,166,-1,-1,-1,-1,-1,-1,-1,-1,-1,-1,-1,-1,-1,-1,-1,-1,-1,-1,-1,-1,-1,-1,-1,-1,-1,-1,-1,-1,-1,-1,-1,-1,-1,-1,-1,-1,-1,-1,-1,-1,-1,-1,-1,-1],"split_conditions":[7.1E1,1.7E1,9.920422E2,1E0,1.3760418E-2,1E0,2.76E2,5.901239E-2,9.36E2,2.76E2,5.1E-1,9.139057E-1,2.7521032E-1,-2.5496706E-1,4E0,4.37E2,6.952189E-2,3.4E-1,2.76E2,1.7E-1,5.706772E-3,2.5E1,6.865999E-2,7.0951837E-3,2E0,1E-2,2.7767164E-1,1.7E-1,1E0,4.2292714E-2,3E0,8.89E2,-2.7425572E-1,1.09022055E-2,4E0,-2.6978058E-1,-7.585797E-2,-2.086094E-1,2.9E1,3E-2,3.8E-1,3.4E1,2.575425E-1,8.2E-1,1E-2,6.8E-1,1.1E-1,2.47E2,1E0,1.2291258E1,2.7673486E-1,7.0951837E-3,2.7072868E-1,9.36E2,1.1828979E-2,9.6E-1,6.25459E-1,2E0,-2.539593E-1,2.5496706E-1,4.5E1,9.17E2,-2.1854319E-1,9.271529E-2,2.704552E-1,9.36E2,1.0920805E0,6E0,3E-2,-1.1589412E-1,-2.661826E-1,5.7E-1,8.8E-1,1E0,1.1E-1,-9.271529E-2,-2.496181E-1,1.1589412E-1,2.7271864E-1,1.54E2,-1.5452549E-1,1.17E2,2.5E-1,-9.271529E-2,-2.4225609E-1,2.3729019E-2,9.8E-1,1.4463586E-1,5.7E-1,1.09022055E-2,2.747618E-1,1.0792276E-2,7.500174E-1,6.8450977E2,7.9E-1,4.8143096E0,2.6269332E-1,2.0800414E0,-9.271529E-2,1.1E-1,1.09022055E-2,1E-1,9E-2,1.4E-1,2.7403027E-1,2.7730405E-1,1.6361523E-1,8.972447E-3,2.683E-1,5.706772E-3,-2.7805588E-1,1E-2,-2.73991E-1,1.5600189E-2,7E0,-2.7679893E-1,3.4E-1,-1.6305104E-1,-2.7160126E-1,-2.263978E-1,2.4225609E-1,1.34E2,5E-1,-2.2779283E-1,-2.637232E-1,-1.7782275E-1,2.2795413E-1,-2.3399574E-1,4.6357647E-2,2.3263109E-1,-7.462451E-2,-2.5993395E-1,-4.941678E-2,1.3907294E-1,2.659197E-1,2.4064305E-1,-0E0,-2.2059846E-1,1.4463586E-1,-3.3377506E-2,7.7880844E-2,-1.8385914E-1,-2.671302E-1,2.2847699E-1,2.750381E-1,2.3364253E-1,-1.3175331E-1,9.271529E-2,2.718244E-1,2.5791708E-1,-2.2449338E-1,4.6357647E-2,2.3364253E-1,-2.0136194E-1,-2.7234635E-1,2.6566052E-1,-2.5675005E-1,-0E0,-2.4612056E-1,1.7478086E-1,-2.233288E-1,-7.585797E-2,-2.126998E-1,-2.3693909E-1,2.5633052E-1,2.3535421E-1,2.7579013E-1],"split_indices":[10,4,1,13,12,22,19,17,1,19,11,15,0,0,4,20,11,12,19,11,13,4,6,17,4,14,0,15,22,12,4,19,0,11,4,0,0,0,4,15,11,10,0,13,14,11,16,10,11,10,0,17,0,1,13,12,17,4,0,0,0,19,0,0,0,1,10,0,13,0,0,11,11,11,12,0,0,0,0,10,0,10,14,0,0,12,11,0,8,11,0,15,17,20,17,10,0,10,0,14,11,13,13,15,0,0,0,0,0,13,0,14,0,17,4,0,17,0,0,0,0,10,14,0,0,0,0,0,0,0,0,0,0,0,0,0,0,0,0,0,0,0,0,0,0,0,0,0,0,0,0,0,0,0,0,0,0,0,0,0,0,0,0,0,0,0,0],"split_type":[0,0,0,0,0,0,0,0,0,0,0,0,0,0,0,0,0,0,0,0,0,0,0,0,0,0,0,0,0,0,0,0,0,0,0,0,0,0,0,0,0,0,0,0,0,0,0,0,0,0,0,0,0,0,0,0,0,0,0,0,0,0,0,0,0,0,0,0,0,0,0,0,0,0,0,0,0,0,0,0,0,0,0,0,0,0,0,0,0,0,0,0,0,0,0,0,0,0,0,0,0,0,0,0,0,0,0,0,0,0,0,0,0,0,0,0,0,0,0,0,0,0,0,0,0,0,0,0,0,0,0,0,0,0,0,0,0,0,0,0,0,0,0,0,0,0,0,0,0,0,0,0,0,0,0,0,0,0,0,0,0,0,0,0,0,0,0],"sum_hessian":[3.264925E4,1.760625E4,1.5043E4,5.20475E3,1.24015E4,1.36715E4,1.3715E3,3.9885E3,1.21625E3,1.0275E2,1.229875E4,1.357775E4,9.375E1,1.1E1,1.3605E3,3.09E3,8.985E2,1.265E2,1.08975E3,3.95E1,6.325E1,1.2259E4,3.975E1,1.350875E4,6.9E1,7.75E2,5.855E2,4.05E2,2.685E3,5.94E2,3.045E2,5.6E1,7.05E1,5.85E1,1.03125E3,3.225E1,7.25E0,5E0,5.825E1,3.24E2,1.1935E4,2.725E1,1.25E1,1.200425E4,1.5045E3,1.375E1,5.525E1,5.35E1,7.215E2,1.175E1,3.9325E2,2.6485E3,3.65E1,2.5E1,5.69E2,2.43E2,6.15E1,4.55E1,1.05E1,1.1E1,4.75E1,1.01825E3,1.3E1,5E0,5.325E1,1.12E2,2.12E2,1.1901E4,3.4E1,5E0,2.225E1,1.159275E4,4.115E2,4.3575E2,1.06875E3,5E0,8.75E0,5E0,5.025E1,4.775E1,5.75E0,1.65E1,7.05E2,5E0,6.75E0,2.34E3,3.085E2,5.25E0,1.975E1,3.575E1,5.3325E2,2.1525E2,2.775E1,5E1,1.15E1,1.05E1,3.5E1,3.8E1,9.5E0,9.9975E2,1.85E1,5.1E1,6.1E1,1.025E1,2.0175E2,1.18935E4,7.5E0,6.75E0,2.725E1,7.75E2,1.081775E4,1.1125E2,3.0025E2,1.4725E2,2.885E2,1.0315E3,3.725E1,6.25E0,4.15E1,9.75E0,6.75E0,1.75E1,6.875E2,6.3425E2,1.70575E3,2.7625E2,3.225E1,1.475E1,5E0,2.65E1,9.25E0,1.67E2,4.825E1,6E0,2.175E1,4.35E1,6.5E0,6.25E0,5.25E0,5.25E0,5.25E0,1.375E1,2.425E1,4.19E2,5.8075E2,5.25E0,1.325E1,8E0,4.3E1,1.275E1,4.825E1,5E0,5.25E0,1.765E2,5.985E2,9.925E1,1.2E1,3.1E1,1.1625E2,2.21E2,6.75E1,1.275E1,2.45E1,5.75E0,1.175E1,2.7525E2,4.1225E2],"tree_param":{"num_deleted":"0","num_feature":"23","num_nodes":"167","size_leaf_vector":"1"}},{"base_weights":[-1.2734489E-3,1.5067238E0,-1.4612561E0,1.6083968E0,-1.0887296E0,-1.6183652E0,7.2600967E-1,1.6534191E0,-9.831504E-1,-1.7512156E0,2.4443637E-1,-1.6788635E0,6.953043E-1,-2.5402465E-1,2.4425176E-1,1.7265983E0,1.0073574E0,-1.4706733E0,1.4214169E0,-2.4478817E-1,-1.22468084E-1,-1.7027861E0,-6.223328E-1,-1.6304018E0,1.8183324E0,1.7385267E0,2.058113E-1,-3.9808866E-1,2.4542141E-1,-1.6199259E0,2.3974602E-1,-9.629201E-2,2.4118583E-1,-1.7103343E0,-3.239236E-1,-1.7269601E0,1.1093316E0,-2.439883E-1,1.5020506E-1,2.5747952E-1,1.303531E0,1.750031E0,1.2261214E0,1.3393213E0,-1.5296098E0,-1.0191182E0,1.6219451E0,-1.659819E0,-5.5965647E-2,-1.8544376E-1,1.9926985E-1,-1.5775764E0,-1.7525054E0,-2.4366191E-1,1.3815225E0,-2.4209869E-1,-1.3991426E-1,1.7025912E0,-1.5292482E0,8.36588E-2,2.2639112E-1,2.4377602E-1,1.4182147E0,1.7215447E0,-1.253552E0,6.402152E-1,2.345932E-1,-2.8749058E-2,-2.4336576E-1,-1.6526871E0,2.427331E-1,2.4152991E-1,3.7476018E-1,-8.820207E-1,-1.7208126E0,-1.6617544E0,-1.0033027E0,-8.233714E-1,-1.7584586E0,5.52948E-2,1.6041945E0,1.6056432E-1,2.4228151E-1,-2.3105437E-1,-1.2183947E-1,-4.8666034E-2,2.4242327E-1,8.1427276E-2,2.4279155E-1,-2.441E-1,2.5747964E-1,-1.2709078E-1,1.9490786E-1,-3.0892355E-2,-2.3349501E-1,-8.316783E-2,1.6960523E-1,1.268796E-3,-1.8637042E-1,-2.4154589E-1,-1.4203797E-1,-2.4009512E-1,-1.8524809E-1,2.1929298E-1,-2.3667924E-1,-2.3898983E-1,6.0684703E-2,-2.4460432E-1,-1.1627923E-1,2.4927445E-1,1.012697E-1],"categories":[],"categories_nodes":[],"categories_segments":[],"categories_sizes":[],"default_left":[0,0,0,0,0,0,0,0,0,0,0,0,0,0,0,0,0,0,0,0,0,0,0,0,0,0,0,0,0,0,0,0,0,0,0,0,0,0,0,0,0,0,0,0,0,0,0,0,0,0,0,0,0,0,0,0,0,0,0,0,0,0,0,0,0,0,0,0,0,0,0,0,0,0,0,0,0,0,0,0,0,0,0,0,0,0,0,0,0,0,0,0,0,0,0,0,0,0,0,0,0,0,0,0,0,0,0,0,0,0,0],"id":1,"left_children":[1,3,5,7,9,11,13,15,17,19,-1,21,23,-1,-1,25,27,29,31,-1,-1,33,35,37,39,41,43,45,-1,47,49,-1,-1,51,53,55,57,-1,-1,-1,59,61,63,65,67,69,71,73,-1,-1,-1,75,77,-1,79,-1,-1,81,83,-1,-1,-1,85,87,89,91,-1,-1,-1,93,-1,-1,95,97,99,101,103,105,107,-1,109,-1,-1,-1,-1,-1,-1,-1,-1,-1,-1,-1,-1,-1,-1,-1,-1,-1,-1,-1,-1,-1,-1,-1,-1,-1,-1,-1,-1,-1,-1],"loss_changes":[7.059735E4,4.164168E3,5.5998086E3,1.7727109E3,1.1254333E3,2.1288594E3,2.8763594E3,7.0366797E2,3.066847E2,2.2061768E0,0E0,3.7335156E2,1.0164861E3,0E0,0E0,2.427461E2,1.6190941E3,5.5663086E1,3.0499496E1,0E0,0E0,1.5020312E2,6.3232996E2,4.4538147E1,2.0493774E0,7.6234375E1,2.0943925E2,6.7060077E2,0E0,9.010742E0,3.6162285E1,0E0,0E0,7.7890625E1,1.975023E2,2.6062012E-1,2.0447824E2,0E0,0E0,0E0,3.3925438E0,9.738281E0,3.649454E2,1.4543442E1,1.1914131E1,7.1830676E2,1.7352112E1,7.6207275E0,0E0,0E0,0E0,1.6670215E2,5.8976562E1,0E0,7.482437E0,0E0,0E0,2.798462E-1,6.3321686E-1,0E0,0E0,0E0,6.686665E1,5.767761E0,8.074671E1,2.844815E1,0E0,0E0,0E0,1.212616E1,0E0,0E0,1.0487005E1,6.5675726E0,2.1551514E-1,6.241504E1,8.097372E2,8.1288246E1,2.1523438E0,0E0,3.6234589E0,0E0,0E0,0E0,0E0,0E0,0E0,0E0,0E0,0E0,0E0,0E0,0E0,0E0,0E0,0E0,0E0,0E0,0E0,0E0,0E0,0E0,0E0,0E0,0E0,0E0,0E0,0E0,0E0,0E0,0E0],"parents":[2147483647,0,0,1,1,2,2,3,3,4,4,5,5,6,6,7,7,8,8,9,9,11,11,12,12,15,15,16,16,17,17,18,18,21,21,22,22,23,23,24,24,25,25,26,26,27,27,29,29,30,30,33,33,34,34,35,35,36,36,40,40,41,41,42,42,43,43,44,44,45,45,46,46,47,47,51,51,52,52,54,54,57,57,58,58,62,62,63,63,64,64,65,65,69,69,72,72,73,73,74,74,75,75,76,76,77,77,78,78,80,80],"right_children":[2,4,6,8,10,12,14,16,18,20,-1,22,24,-1,-1,26,28,30,32,-1,-1,34,36,38,40,42,44,46,-1,48,50,-1,-1,52,54,56,58,-1,-1,-1,60,62,64,66,68,70,72,74,-1,-1,-1,76,78,-1,80,-1,-1,82,84,-1,-1,-1,86,88,90,92,-1,-1,-1,94,-1,-1,96,98,100,102,104,106,108,-1,110,-1,-1,-1,-1,-1,-1,-1,-1,-1,-1,-1,-1,-1,-1,-1,-1,-1,-1,-1,-1,-1,-1,-1,-1,-1,-1,-1,-1,-1,-1],"split_conditions":[3E1,2.12E2,9.920422E2,4E0,9.920422E2,5.454E4,1.86E2,1E-2,8E-2,1.3760418E-2,2.4443637E-1,1.1E-1,9.9E-1,-2.5402465E-1,2.4425176E-1,7.2E-1,9.920422E2,7.46E2,2.9E-1,-2.4478817E-1,-1.22468084E-1,7.372807E2,7E-1,4.219E3,2.1E-1,9E0,3.4102184E-1,5.2E-1,2.4542141E-1,2.7073386E0,3.5E-1,-9.629201E-2,2.4118583E-1,1.4E2,7.6E-1,1.583E3,3E1,-2.439883E-1,1.5020506E-1,2.5747952E-1,5.042E3,3.2E-1,9.36E2,2.7073386E0,1E1,9.80831E-1,1.1E-1,1.0920805E0,-5.5965647E-2,-1.8544376E-1,1.9926985E-1,2.175E3,4E0,-2.4366191E-1,5E-2,-2.4209869E-1,-1.3991426E-1,2.78E2,2.8E2,8.36588E-2,2.2639112E-1,2.4377602E-1,2.7073386E0,2.7073386E0,9.920422E2,8.8E-1,2.345932E-1,-2.8749058E-2,-2.4336576E-1,3.6879987E-2,2.427331E-1,2.4152991E-1,3E-1,7E0,6.3E1,8.2E-1,2.491E3,8.2E-1,3.67E2,5.52948E-2,1E0,1.6056432E-1,2.4228151E-1,-2.3105437E-1,-1.2183947E-1,-4.8666034E-2,2.4242327E-1,8.1427276E-2,2.4279155E-1,-2.441E-1,2.5747964E-1,-1.2709078E-1,1.9490786E-1,-3.0892355E-2,-2.3349501E-1,-8.316783E-2,1.6960523E-1,1.268796E-3,-1.8637042E-1,-2.4154589E-1,-1.4203797E-1,-2.4009512E-1,-1.8524809E-1,2.1929298E-1,-2.3667924E-1,-2.3898983E-1,6.0684703E-2,-2.4460432E-1,-1.1627923E-1,2.4927445E-1,1.012697E-1],"split_indices":[2,10,1,3,1,2,2,14,17,12,0,14,11,0,0,11,1,3,12,0,0,20,13,0,13,2,9,15,0,5,13,0,0,10,11,2,3,0,0,0,0,11,1,5,10,12,13,10,0,0,0,3,3,0,17,0,0,2,2,0,0,0,5,5,1,13,0,0,0,11,0,0,16,2,10,11,3,13,0,0,0,0,0,0,0,0,0,0,0,0,0,0,0,0,0,0,0,0,0,0,0,0,0,0,0,0,0,0,0,0,0],"split_type":[0,0,0,0,0,0,0,0,0,0,0,0,0,0,0,0,0,0,0,0,0,0,0,0,0,0,0,0,0,0,0,0,0,0,0,0,0,0,0,0,0,0,0,0,0,0,0,0,0,0,0,0,0,0,0,0,0,0,0,0,0,0,0,0,0,0,0,0,0,0,0,0,0,0,0,0,0,0,0,0,0,0,0,0,0,0,0,0,0,0,0,0,0,0,0,0,0,0,0,0,0,0,0,0,0,0,0,0,0,0,0],"sum_hessian":[3.2063656E4,1.5772458E4,1.6291199E4,1.5178253E4,5.942049E2,1.5199683E4,1.0915165E3,1.4919423E4,2.5883026E2,4.8232785E2,1.1187704E2,1.4812633E4,3.8704984E2,3.1365225E2,7.778642E2,1.3399947E4,1.519476E3,2.1552187E2,4.330839E1,4.764212E2,5.906646E0,1.4484063E4,3.285691E2,1.2588982E2,2.6116003E2,1.3295519E4,1.04428696E2,5.322383E2,9.872377E2,1.9827327E2,1.7248583E1,5.4265904E0,3.78818E1,1.4404967E4,7.909658E1,2.0060564E2,1.2796345E2,1.20720215E2,5.169603E0,2.4295807E2,1.8201965E1,1.3001206E4,2.9431204E2,6.3307156E1,4.1121544E1,4.0746475E2,1.2477353E2,1.9163097E2,6.6423154E0,7.3886156E0,9.859967E0,3.4819421E3,1.0923024E4,4.303351E1,3.6063072E1,1.9543791E2,5.1677313E0,1.04763176E2,2.320027E1,6.6541896E0,1.1547775E1,1.2886879E4,1.1432701E2,2.45557E2,4.8755024E1,2.1963911E1,4.1343246E1,6.147176E0,3.4974365E1,3.3181992E2,7.564485E1,1.1389971E2,1.0873816E1,1.5058892E1,1.7657207E2,3.0351511E3,4.46791E2,7.042774E1,1.0852597E4,7.1693273E0,2.8893745E1,9.079618E0,9.5683556E1,1.8012558E1,5.187712E0,1.7735895E1,9.659111E1,5.655758E0,2.3990125E2,4.2347923E1,6.407101E0,7.1557035E0,1.4808207E1,6.149991E0,3.2566992E2,5.189801E0,5.684014E0,5.445376E0,9.613517E0,1.7116982E2,5.4022574E0,2.534113E3,5.010381E2,9.492301E1,3.5186798E2,4.096003E1,2.946771E1,1.0847435E4,5.1621494E0,2.292285E1,5.9708967E0],"tree_param":{"num_deleted":"0","num_feature":"23","num_nodes":"111","size_leaf_vector":"1"}},{"base_weights":[4.0780308E-4,1.1357892E0,-1.4905299E0,1.5796554E0,4.6328348E-1,-1.5719404E0,-6.817895E-1,1.5882864E0,-2.1958722E-1,-8.650515E-3,1.2178383E0,-1.477994E0,-2.2140472E-1,-1.151504E0,4.9755755E-1,-9.671243E-2,1.5895075E0,-6.7303103E-1,1.0135145E0,7.6223636E-1,1.5795838E0,-1.5847963E0,-1.037787E0,-1.4794666E0,-3.567778E-1,1.6178378E0,-1.5794963E0,1.4227226E0,2.2134934E-1,-1.1414965E0,6.511506E-1,1.5554317E0,-7.54569E-3,-4.478124E-2,1.4787259E0,-1.9842076E-1,2.2161867E-1,-1.3523037E0,-2.2138569E-1,8.038326E-1,-1.3284377E0,-1.5686927E0,-7.490127E-2,2.651112E-1,-1.3818663E0,2.2820586E-1,9.580722E-2,-2.2615594E-1,-6.914219E-2,-1.02397725E-1,2.2011033E-1,-1.3985995E0,1.2627681E0,-5.061324E-1,1.0615295E0,1.5818825E0,1.9924754E-1,-8.2318157E-1,1.437821E0,-2.2308569E-1,1.5560149E0,1.5195667E0,-7.8729886E-1,-6.950051E-2,-1.4649142E0,-2.4006778E-1,2.674286E-1,-1.3908033E0,2.4485749E-1,3.1001723E-1,-1.6049802E0,-1.4170939E0,1.2476083E0,1.3672149E0,-6.3647825E-1,-2.1724905E-1,1.9194093E-1,2.7551633E-1,-1.5106063E0,-1.0685074E0,1.5174859E0,6.9360185E-1,-1.3141743E0,-2.1772088E-1,1.3331715E0,1.0179358E0,1.6045518E0,-1.9979027E-1,1.1912134E0,-1.3009102E0,1.4283485E0,2.2207837E-1,-2.1129595E-1,-2.9689895E-2,2.2129421E-1,2.2269659E-1,1.1013681E0,2.0801134E-2,-2.11603E-1,-1.3658416E-1,-2.1351525E-1,-1.4413619E0,9.173304E-2,-1.9199714E-1,1.7175327E-1,-1.4582266E-1,2.1506782E-1,-2.257439E-1,-1.1586727E0,-2.1677747E-1,-1.1767369E-1,2.0325002E-1,1.21664815E-1,8.0695707E-1,1.6922808E0,-1.4213768E0,1.3709503E0,-1.5445271E-1,1.8273851E-1,-2.1434338E-1,2.0955954E-1,-2.1071205E-1,1.0100216E-2,-7.6523915E-2,2.2057791E-1,2.1486951E-1,3.9491646E-2,-2.0994066E-1,-6.1696887E-2,2.0935224E-1,1.4743009E-1,-1.8659788E-1,2.2698668E-1,2.694626E-1,2.2083198E-1,6.614423E-2,2.1773867E-1,-2.0998451E-1,7.122787E-3,5.4414395E-2,2.097989E-1,-1.6792262E-1,2.1916723E-1,-2.1947183E-1,-1.6714478E-1,-2.1020174E-1,3.264932E-2,-1.3177538E-1,1.8733396E-1,2.531375E-1,1.3530938E-1,-7.4308184E-3,-2.2815053E-1,1.0366209E-1,2.3838231E-1],"categories":[],"categories_nodes":[],"categories_segments":[],"categories_sizes":[],"default_left":[0,0,0,0,0,0,0,0,0,0,0,0,0,0,0,0,0,0,0,0,0,0,0,0,0,0,0,0,0,0,0,0,0,0,0,0,0,0,0,0,0,0,0,0,0,0,0,0,0,0,0,0,0,0,0,0,0,0,0,0,0,0,0,0,0,0,0,0,0,0,0,0,0,0,0,0,0,0,0,0,0,0,0,0,0,0,0,0,0,0,0,0,0,0,0,0,0,0,0,0,0,0,0,0,0,0,0,0,0,0,0,0,0,0,0,0,0,0,0,0,0,0,0,0,0,0,0,0,0,0,0,0,0,0,0,0,0,0,0,0,0,0,0,0,0,0,0,0,0,0,0,0,0,0,0],"id":2,"left_children":[1,3,5,7,9,11,13,15,-1,17,19,21,-1,23,25,-1,27,29,31,33,35,37,39,41,43,45,47,49,-1,51,53,55,57,59,61,-1,-1,63,-1,65,67,69,71,73,75,-1,-1,-1,-1,-1,-1,77,79,81,83,85,87,89,91,-1,93,95,97,-1,99,-1,-1,101,103,105,107,109,111,113,115,-1,-1,117,119,121,123,125,127,-1,129,131,133,-1,135,137,139,-1,-1,-1,-1,-1,141,-1,-1,-1,-1,143,-1,-1,-1,-1,-1,-1,145,-1,-1,-1,-1,147,149,151,153,-1,-1,-1,-1,-1,-1,-1,-1,-1,-1,-1,-1,-1,-1,-1,-1,-1,-1,-1,-1,-1,-1,-1,-1,-1,-1,-1,-1,-1,-1,-1,-1,-1,-1,-1,-1,-1,-1],"loss_changes":[5.18334E4,5.188088E3,8.7047656E2,2.879668E2,2.461651E3,2.03125E1,6.721999E2,3.022461E1,0E0,2.8894924E3,4.371853E2,9.851367E1,0E0,2.255459E2,8.077508E2,0E0,1.390625E0,1.6004137E3,9.274557E2,6.8189136E2,6.445508E1,6.6308594E-1,2.252597E2,7.679126E1,1.6273431E2,3.6976318E0,5.341675E0,4.922052E1,0E0,1.1794534E3,3.208859E2,3.8963623E1,6.8746326E2,1.389167E3,5.9005615E1,0E0,0E0,4.758812E0,0E0,1.6673297E2,3.587195E1,3.983203E1,6.869854E1,1.5922223E2,5.0117676E1,0E0,0E0,0E0,0E0,0E0,0E0,3.232417E2,1.1122739E2,1.727467E2,3.5766223E2,1.2095459E1,3.7559265E1,4.0282104E2,1.0135364E2,0E0,1.7442627E1,1.9219604E1,8.287792E0,0E0,1.9080353E-1,0E0,0E0,3.707489E1,2.5294455E1,2.1394197E1,2.7247314E0,2.3236465E-1,2.779503E-1,1.1751831E1,1.4113763E2,0E0,0E0,1.5807858E2,1.5144727E2,9.674818E0,2.4524994E1,2.4669636E1,1.7405716E1,0E0,1.966095E1,6.630007E1,2.6435547E0,0E0,3.0867062E0,8.712024E1,4.876831E0,0E0,0E0,0E0,0E0,0E0,1.15376175E2,0E0,0E0,0E0,0E0,9.251953E0,0E0,0E0,0E0,0E0,0E0,0E0,1.29921E1,0E0,0E0,0E0,0E0,2.814586E1,2.338684E0,1.909665E1,4.1617203E0,0E0,0E0,0E0,0E0,0E0,0E0,0E0,0E0,0E0,0E0,0E0,0E0,0E0,0E0,0E0,0E0,0E0,0E0,0E0,0E0,0E0,0E0,0E0,0E0,0E0,0E0,0E0,0E0,0E0,0E0,0E0,0E0,0E0,0E0,0E0,0E0,0E0,0E0],"parents":[2147483647,0,0,1,1,2,2,3,3,4,4,5,5,6,6,7,7,9,9,10,10,11,11,13,13,14,14,16,16,17,17,18,18,19,19,20,20,21,21,22,22,23,23,24,24,25,25,26,26,27,27,29,29,30,30,31,31,32,32,33,33,34,34,37,37,39,39,40,40,41,41,42,42,43,43,44,44,51,51,52,52,53,53,54,54,55,55,56,56,57,57,58,58,60,60,61,61,62,62,64,64,67,67,68,68,69,69,70,70,71,71,72,72,73,73,74,74,77,77,78,78,79,79,80,80,81,81,82,82,84,84,85,85,86,86,88,88,89,89,90,90,96,96,101,101,108,108,113,113,114,114,115,115,116,116],"right_children":[2,4,6,8,10,12,14,16,-1,18,20,22,-1,24,26,-1,28,30,32,34,36,38,40,42,44,46,48,50,-1,52,54,56,58,60,62,-1,-1,64,-1,66,68,70,72,74,76,-1,-1,-1,-1,-1,-1,78,80,82,84,86,88,90,92,-1,94,96,98,-1,100,-1,-1,102,104,106,108,110,112,114,116,-1,-1,118,120,122,124,126,128,-1,130,132,134,-1,136,138,140,-1,-1,-1,-1,-1,142,-1,-1,-1,-1,144,-1,-1,-1,-1,-1,-1,146,-1,-1,-1,-1,148,150,152,154,-1,-1,-1,-1,-1,-1,-1,-1,-1,-1,-1,-1,-1,-1,-1,-1,-1,-1,-1,-1,-1,-1,-1,-1,-1,-1,-1,-1,-1,-1,-1,-1,-1,-1,-1,-1,-1,-1],"split_conditions":[4E0,1E-2,7.0951837E-3,5.1E-1,9E0,1.4E2,8.314E3,1.3760418E-2,-2.1958722E-1,6.23E2,9.920422E2,2.175E3,-2.2140472E-1,2.23E2,8.497E3,-9.671243E-2,3.1660832E-2,1E0,8.83E2,6.23E2,2.76E2,3.7E1,2.491E3,6.8450977E2,8.89E2,3.4102184E-1,4.4E-1,9.7E-1,2.2134934E-1,5.1E-1,8E-2,9.1E-1,1.2E-1,3.2E-1,8.5E-1,-1.9842076E-1,2.2161867E-1,2.0800414E0,-2.2138569E-1,2.56E2,4.85E2,1.27E2,7.6E-1,1.5088541E-2,2.9E-1,2.2820586E-1,9.580722E-2,-2.2615594E-1,-6.914219E-2,-1.02397725E-1,2.2011033E-1,3E0,7.0494175E-2,4.7E1,2.23E2,1.3760418E-2,1E-1,1.7E-1,6.0550526E-2,-2.2308569E-1,1E-1,8.65E2,1.44E2,-6.950051E-2,8.89E2,-2.4006778E-1,2.674286E-1,1.8E-1,7E-1,8.943325E-2,3.692332E-1,1.2E-1,5.706772E-3,2.234E3,3.2E-1,-2.1724905E-1,1.9194093E-1,1.5600189E-2,1E0,3.1660832E-2,1.1886552E-1,1.09022055E-2,2.7073386E0,-2.1772088E-1,9.1E1,1.1828979E-2,5E-2,-1.9979027E-1,5.863623E0,1E0,4.4E-1,2.2207837E-1,-2.1129595E-1,-2.9689895E-2,2.2129421E-1,2.2269659E-1,9.36E2,2.0801134E-2,-2.11603E-1,-1.3658416E-1,-2.1351525E-1,1E0,9.173304E-2,-1.9199714E-1,1.7175327E-1,-1.4582266E-1,2.1506782E-1,-2.257439E-1,3.5E2,-2.1677747E-1,-1.1767369E-1,2.0325002E-1,1.21664815E-1,4.2292714E-2,4E-2,2.38E2,3E-2,-1.5445271E-1,1.8273851E-1,-2.1434338E-1,2.0955954E-1,-2.1071205E-1,1.0100216E-2,-7.6523915E-2,2.2057791E-1,2.1486951E-1,3.9491646E-2,-2.0994066E-1,-6.1696887E-2,2.0935224E-1,1.4743009E-1,-1.8659788E-1,2.2698668E-1,2.694626E-1,2.2083198E-1,6.614423E-2,2.1773867E-1,-2.0998451E-1,7.122787E-3,5.4414395E-2,2.097989E-1,-1.6792262E-1,2.1916723E-1,-2.1947183E-1,-1.6714478E-1,-2.1020174E-1,3.264932E-2,-1.3177538E-1,1.8733396E-1,2.531375E-1,1.3530938E-1,-7.4308184E-3,-2.2815053E-1,1.0366209E-1,2.3838231E-1],"split_indices":[3,13,17,11,5,10,3,12,0,19,1,3,0,19,3,0,12,13,19,19,19,3,3,20,19,18,12,15,0,7,14,11,17,7,11,0,0,10,0,19,19,3,11,18,12,0,0,0,0,0,0,10,16,10,19,12,13,15,11,0,16,19,10,0,19,0,0,9,11,12,12,12,13,3,11,0,0,17,22,12,15,11,5,0,10,13,12,0,10,13,16,0,0,0,0,0,1,0,0,0,0,11,0,0,0,0,0,0,3,0,0,0,0,12,12,3,15,0,0,0,0,0,0,0,0,0,0,0,0,0,0,0,0,0,0,0,0,0,0,0,0,0,0,0,0,0,0,0,0,0,0,0,0,0,0],"split_type":[0,0,0,0,0,0,0,0,0,0,0,0,0,0,0,0,0,0,0,0,0,0,0,0,0,0,0,0,0,0,0,0,0,0,0,0,0,0,0,0,0,0,0,0,0,0,0,0,0,0,0,0,0,0,0,0,0,0,0,0,0,0,0,0,0,0,0,0,0,0,0,0,0,0,0,0,0,0,0,0,0,0,0,0,0,0,0,0,0,0,0,0,0,0,0,0,0,0,0,0,0,0,0,0,0,0,0,0,0,0,0,0,0,0,0,0,0,0,0,0,0,0,0,0,0,0,0,0,0,0,0,0,0,0,0,0,0,0,0,0,0,0,0,0,0,0,0,0,0,0,0,0,0,0,0],"sum_hessian":[3.0618227E4,1.7381828E4,1.3236399E4,1.0470051E4,6.911777E3,1.2024981E4,1.2114185E3,1.0442015E4,2.8036133E1,4.25284E3,2.658937E3,2.1293352E3,9.895646E3,8.663779E2,3.4504047E2,5.276492E0,1.0436738E4,2.5777263E3,1.6751133E3,1.17818E3,1.480757E3,1.7114949E3,4.178402E2,6.126796E2,2.5369835E2,2.2428899E2,1.2075147E2,1.3813463E2,1.0298604E4,1.904201E3,6.735253E2,1.0939742E3,5.8113904E2,5.545267E2,6.236533E2,6.375876E0,1.4743811E3,5.6192413E1,1.6553025E3,5.6715317E1,3.6112488E2,5.759736E2,3.6706024E1,1.5836479E2,9.533356E1,2.1810594E2,6.1830416E0,1.1527807E2,5.473405E0,9.28065E0,1.2885397E2,1.7206226E3,1.8357852E2,1.7625284E2,4.972725E2,1.0728826E3,2.1091686E1,3.7177365E2,2.0936537E2,2.8090222E2,2.7362448E2,6.129358E2,1.0717579E1,7.190635E0,4.9001778E1,1.722689E1,3.9488422E1,3.4746725E2,1.365765E1,1.0771276E1,5.6520233E2,1.818195E1,1.8524073E1,7.102604E1,8.7338745E1,8.99008E1,5.4327536E0,1.0780775E2,1.6128148E3,1.7767612E1,1.6581091E2,7.099104E1,1.05261795E2,4.6154068E1,4.5111844E2,4.3234726E1,1.0296478E3,7.792683E0,1.3299003E1,3.070468E2,6.4726845E1,1.9911737E2,1.0248003E1,5.237379E0,2.683871E2,5.1036774E2,1.0256802E2,5.0588303E0,5.658749E0,8.135436E0,4.0866344E1,3.393955E2,8.071719E0,5.020928E0,8.636722E0,5.2045746E0,5.566702E0,5.4049445E2,2.4707851E1,1.318193E1,5.0000205E0,9.915414E0,8.60866E0,2.7357414E1,4.366863E1,6.299847E1,2.4340273E1,4.6145153E1,6.166259E1,1.5970952E3,1.5719573E1,1.2534271E1,5.2333407E0,5.096904E0,1.60714E2,2.216033E1,4.883071E1,8.536676E1,1.9895035E1,2.7391162E2,1.7720683E2,8.684812E0,3.454991E1,4.3580276E1,9.8606757E2,5.3480725E0,7.95093E0,2.658429E2,4.120391E1,5.0683923E0,5.965845E1,1.722398E1,8.534404E1,2.124902E2,1.2690532E2,1.9648693E1,5.059159E0,6.2614746E0,2.109594E1,3.57772E1,7.8914266E0,8.870137E0,5.4128334E1,9.745422E0,1.4594851E1],"tree_param":{"num_deleted":"0","num_feature":"23","num_nodes":"155","size_leaf_vector":"1"}},{"base_weights":[-3.7143304E-4,9.5835423E-1,-1.1239791E0,-1.611476E-1,1.4440606E0,-1.36428E0,1.2500446E0,-5.1414376E-1,1.0042706E0,2.7328306E-1,1.4537737E0,-1.3834496E0,2.0311092E-1,1.1410784E-1,2.0489456E-1,-8.6035275E-1,6.918417E-1,-4.626975E-1,1.180997E0,-1.2661104E0,1.1814607E0,1.4596424E0,-4.1432318E-1,-1.3953675E0,8.686381E-1,-1.3594257E0,8.399783E-1,-1.207653E0,1.2840334E0,1.3227602E0,-5.0564903E-1,6.9951624E-1,-2.0386207E-1,-6.1683714E-1,1.2833807E0,-1.9855767E-1,-5.0696097E-2,-9.487066E-2,1.3914167E0,1.0435532E0,1.4695351E0,1.929603E-1,-1.2679068E0,-1.4411881E0,-1.0344367E0,-1.030471E0,1.3946004E0,-1.4267265E0,-7.768136E-2,1.289268E-1,2.0928155E-1,-1.2480241E0,2.036682E-1,-1.2448893E0,1.453918E0,-5.530074E-1,1.411416E0,-8.5255903E-1,8.2439953E-1,1.1876854E0,-2.0426601E-1,1.8702352E-1,-1.0628909E0,1.3267467E0,-9.327722E-1,1.1702296E-1,2.001694E-1,2.659336E-1,1.4356838E0,1.4703697E0,1.1463598E0,-9.079071E-2,-1.9623676E-1,-1.4666451E0,-7.435196E-1,-7.814681E-2,-1.4439135E0,-5.034265E-2,-1.9049637E-1,2.0438893E-1,9.093841E-2,-2.0384517E-1,-1.15975715E-1,-5.556398E-1,1.2508518E0,-1.2706925E0,5.553741E-1,-2.1534073E-1,-1.33829005E-2,2.5387332E-2,2.0525762E-1,-1.1071938E0,3.8509734E-2,7.0332855E-1,2.0300256E-1,-1.1291324E0,1.2947675E0,1.1382744E0,-2.4276915E-1,2.0776111E-1,3.4950328E-1,-1.277073E0,-3.3324018E-2,1.3526304E0,-1.3939899E-1,4.7929328E-2,-2.1056178E-1,1.3028736E0,-6.1963576E-1,1.1293613E-1,2.0306204E-1,2.0452596E-1,1.1087457E-1,1.9733603E-1,-1.6604908E-2,-1.3448135E0,-2.0518447E-1,1.170155E0,-2.0440856E-1,-1.0192271E0,3.9958504E-1,-2.0441093E-1,-7.806402E-1,1.6987385E-1,-2.641679E-1,1.0593101E-1,1.9518742E-1,-1.4266632E-1,-1.8979968E-1,1.5051667E-1,-1.8073738E-1,-9.277795E-2,-1.9941656E-1,-1.54628195E-2,1.9402151E-1,-1.9231015E-1,-4.1932713E-2,9.211448E-2,2.0022197E-1,1.8160579E-1,4.3563815E-3,-1.4774422E-1,1.1211678E-1,-5.8890887E-2,1.2139574E-1,-1.2683812E-1,-1.9959271E-1,1.5576302E-1,1.9849488E-1,-8.876856E-2,1.0157485E-1,6.2614374E-2,2.0093061E-1,1.1547674E-1,-2.0252669E-1,-1.4286624E-1,-2.0025899E-1,2.0422345E-1,-1.9164109E-1,-1.5942927E-1,1.8955712E-1,1.276715E-1,-1.7209822E-1,-1.6393721E-1,-4.0440064E-2],"categories":[],"categories_nodes":[],"categories_segments":[],"categories_sizes":[],"default_left":[0,0,0,0,0,0,0,0,0,0,0,0,0,0,0,0,0,0,0,0,0,0,0,0,0,0,0,0,0,0,0,0,0,0,0,0,0,0,0,0,0,0,0,0,0,0,0,0,0,0,0,0,0,0,0,0,0,0,0,0,0,0,0,0,0,0,0,0,0,0,0,0,0,0,0,0,0,0,0,0,0,0,0,0,0,0,0,0,0,0,0,0,0,0,0,0,0,0,0,0,0,0,0,0,0,0,0,0,0,0,0,0,0,0,0,0,0,0,0,0,0,0,0,0,0,0,0,0,0,0,0,0,0,0,0,0,0,0,0,0,0,0,0,0,0,0,0,0,0,0,0,0,0,0,0,0,0,0,0,0,0,0,0,0,0],"id":3,"left_children":[1,3,5,7,9,11,13,15,17,19,21,23,-1,25,-1,27,29,31,33,35,37,39,41,43,45,47,49,51,53,55,57,59,-1,61,63,-1,-1,-1,65,67,69,-1,71,73,75,77,79,81,-1,83,-1,85,-1,87,89,91,93,95,97,99,-1,-1,101,103,105,-1,-1,107,109,111,113,-1,-1,115,117,119,121,-1,-1,-1,-1,-1,-1,123,125,127,129,-1,-1,-1,-1,131,-1,133,-1,135,137,139,141,-1,143,145,-1,147,149,-1,-1,151,153,-1,-1,-1,-1,-1,-1,155,-1,157,-1,159,161,-1,163,-1,-1,-1,-1,-1,-1,-1,-1,-1,-1,-1,-1,-1,-1,-1,-1,-1,-1,-1,-1,-1,-1,-1,-1,-1,-1,-1,-1,-1,-1,-1,-1,-1,-1,-1,-1,-1,-1,-1,-1,-1,-1],"loss_changes":[3.0884709E4,8.412197E3,7.532121E3,1.9266061E3,1.2230078E2,6.5112305E2,3.076505E2,1.5012355E3,2.8281458E2,1.2732987E2,1.1791211E2,3.2079883E2,0E0,2.1554811E2,0E0,2.081581E3,6.067545E2,1.383463E2,1.7970593E2,4.416134E0,2.3301834E1,4.2375E1,5.4494995E1,1.9439844E2,6.4660706E1,2.7893982E0,6.3587563E1,2.611797E2,1.6926678E2,8.819879E1,1.2876071E2,6.021779E1,0E0,4.7844536E1,8.965015E1,0E0,0E0,0E0,1.4998627E-1,7.620886E1,1.1230469E0,0E0,1.1731148E0,1.855332E2,5.237606E2,2.7482014E0,1.8182144E0,1.8248749E-1,0E0,5.1605865E1,0E0,9.7548096E1,0E0,8.592693E0,9.950439E0,1.1548306E1,1.613861E1,1.3248401E2,1.9677814E1,1.1192902E1,0E0,0E0,7.4133224E0,3.4445435E1,1.4067776E1,0E0,0E0,7.925431E1,1.3544922E0,7.050781E-1,1.09929085E1,0E0,0E0,8.794922E0,5.1867444E2,1.8121393E2,1.4942139E1,0E0,0E0,0E0,0E0,0E0,0E0,1.0229E2,8.294563E-1,5.248633E1,3.0829409E1,0E0,0E0,0E0,0E0,1.1793327E0,0E0,1.9301882E1,0E0,4.072644E1,1.3962593E0,8.293282E0,1.2882176E1,0E0,5.8386593E0,6.8263626E-1,0E0,1.3804932E1,7.6547737E0,0E0,0E0,4.150017E0,5.792659E1,0E0,0E0,0E0,0E0,0E0,0E0,1.9335327E1,0E0,8.022847E1,0E0,4.2662964E1,2.2813748E2,0E0,6.938114E0,0E0,0E0,0E0,0E0,0E0,0E0,0E0,0E0,0E0,0E0,0E0,0E0,0E0,0E0,0E0,0E0,0E0,0E0,0E0,0E0,0E0,0E0,0E0,0E0,0E0,0E0,0E0,0E0,0E0,0E0,0E0,0E0,0E0,0E0,0E0,0E0,0E0,0E0,0E0,0E0,0E0,0E0],"parents":[2147483647,0,0,1,1,2,2,3,3,4,4,5,5,6,6,7,7,8,8,9,9,10,10,11,11,13,13,15,15,16,16,17,17,18,18,19,19,20,20,21,21,22,22,23,23,24,24,25,25,26,26,27,27,28,28,29,29,30,30,31,31,33,33,34,34,38,38,39,39,40,40,42,42,43,43,44,44,45,45,46,46,47,47,49,49,51,51,53,53,54,54,55,55,56,56,57,57,58,58,59,59,62,62,63,63,64,64,67,67,68,68,69,69,70,70,73,73,74,74,75,75,76,76,83,83,84,84,85,85,86,86,91,91,93,93,95,95,96,96,97,97,98,98,100,100,101,101,103,103,104,104,107,107,108,108,115,115,117,117,119,119,120,120,122,122],"right_children":[2,4,6,8,10,12,14,16,18,20,22,24,-1,26,-1,28,30,32,34,36,38,40,42,44,46,48,50,52,54,56,58,60,-1,62,64,-1,-1,-1,66,68,70,-1,72,74,76,78,80,82,-1,84,-1,86,-1,88,90,92,94,96,98,100,-1,-1,102,104,106,-1,-1,108,110,112,114,-1,-1,116,118,120,122,-1,-1,-1,-1,-1,-1,124,126,128,130,-1,-1,-1,-1,132,-1,134,-1,136,138,140,142,-1,144,146,-1,148,150,-1,-1,152,154,-1,-1,-1,-1,-1,-1,156,-1,158,-1,160,162,-1,164,-1,-1,-1,-1,-1,-1,-1,-1,-1,-1,-1,-1,-1,-1,-1,-1,-1,-1,-1,-1,-1,-1,-1,-1,-1,-1,-1,-1,-1,-1,-1,-1,-1,-1,-1,-1,-1,-1,-1,-1,-1,-1],"split_conditions":[7.1E1,1.8E1,9.920422E2,1E0,1.3760418E-2,1E0,2.7073386E0,5.901239E-2,9.36E2,2.76E2,5.1E-1,9.1E-1,2.0311092E-1,2.5E-1,2.0489456E-1,5.4813087E-1,6.290481E-2,3.4E-1,2.76E2,1.7E-1,2.7073386E0,2.5E1,2.0182741E1,7.0951837E-3,2E0,2.3729019E-2,1.34E2,1E0,2.7E-1,4.2292714E-2,3E0,8.89E2,-2.0386207E-1,1.09022055E-2,3E0,-1.9855767E-1,-5.0696097E-2,-9.487066E-2,3.5E1,3E-2,3.8E-1,1.929603E-1,2.1E1,8.2E-1,1E-2,1.2E-1,2E-2,2.47E2,-7.768136E-2,5E-1,2.0928155E-1,7.6E-1,2.036682E-1,6.23E2,5.1E-1,3E0,1.1828979E-2,9.6E-1,5.8729286E0,2.2324887E-1,-2.0426601E-1,1.8702352E-1,4.5E1,9.17E2,1.0278628E1,1.1702296E-1,2.001694E-1,9.36E2,1.0920805E0,8E0,8.1E1,-9.079071E-2,-1.9623676E-1,5.7E-1,8.8E-1,1E0,9.0764254E-2,-5.034265E-2,-1.9049637E-1,2.0438893E-1,9.093841E-2,-2.0384517E-1,-1.15975715E-1,2.7E-1,5.2E-1,3E-2,1.0920805E0,-2.1534073E-1,-1.33829005E-2,2.5387332E-2,2.0525762E-1,4.8143096E0,3.8509734E-2,4.85877E-3,2.0300256E-1,1.0792276E-2,7.500174E-1,5.679393E-1,3.1660832E-2,2.0776111E-1,1E1,2.0800414E0,-3.3324018E-2,1.5470282E0,1E-1,4.7929328E-2,-2.1056178E-1,1E-1,2E-1,1.1293613E-1,2.0306204E-1,2.0452596E-1,1.1087457E-1,1.9733603E-1,-1.6604908E-2,5.706772E-3,-2.0518447E-1,1E-2,-2.0440856E-1,6.000665E-2,8E0,-2.0441093E-1,9.7E1,1.6987385E-1,-2.641679E-1,1.0593101E-1,1.9518742E-1,-1.4266632E-1,-1.8979968E-1,1.5051667E-1,-1.8073738E-1,-9.277795E-2,-1.9941656E-1,-1.54628195E-2,1.9402151E-1,-1.9231015E-1,-4.1932713E-2,9.211448E-2,2.0022197E-1,1.8160579E-1,4.3563815E-3,-1.4774422E-1,1.1211678E-1,-5.8890887E-2,1.2139574E-1,-1.2683812E-1,-1.9959271E-1,1.5576302E-1,1.9849488E-1,-8.876856E-2,1.0157485E-1,6.2614374E-2,2.0093061E-1,1.1547674E-1,-2.0252669E-1,-1.4286624E-1,-2.0025899E-1,2.0422345E-1,-1.9164109E-1,-1.5942927E-1,1.8955712E-1,1.276715E-1,-1.7209822E-1,-1.6393721E-1,-4.0440064E-2],"split_indices":[10,4,1,13,12,22,5,17,1,19,11,15,0,14,0,6,11,12,19,11,5,4,10,17,4,12,10,22,15,12,4,19,0,11,4,0,0,0,4,15,11,0,5,13,14,13,14,10,0,14,0,18,0,19,16,4,13,12,5,11,0,0,0,19,10,0,0,1,10,0,5,0,0,11,11,11,12,0,0,0,0,0,0,14,14,12,10,0,0,0,0,10,0,8,0,15,17,18,12,0,10,10,0,5,16,0,0,13,13,0,0,0,0,0,0,13,0,14,0,12,5,0,10,0,0,0,0,0,0,0,0,0,0,0,0,0,0,0,0,0,0,0,0,0,0,0,0,0,0,0,0,0,0,0,0,0,0,0,0,0,0,0,0,0,0],"split_type":[0,0,0,0,0,0,0,0,0,0,0,0,0,0,0,0,0,0,0,0,0,0,0,0,0,0,0,0,0,0,0,0,0,0,0,0,0,0,0,0,0,0,0,0,0,0,0,0,0,0,0,0,0,0,0,0,0,0,0,0,0,0,0,0,0,0,0,0,0,0,0,0,0,0,0,0,0,0,0,0,0,0,0,0,0,0,0,0,0,0,0,0,0,0,0,0,0,0,0,0,0,0,0,0,0,0,0,0,0,0,0,0,0,0,0,0,0,0,0,0,0,0,0,0,0,0,0,0,0,0,0,0,0,0,0,0,0,0,0,0,0,0,0,0,0,0,0,0,0,0,0,0,0,0,0,0,0,0,0,0,0,0,0,0,0],"sum_hessian":[2.8668445E4,1.5469305E4,1.319914E4,4.680928E3,1.0788377E4,1.1986301E4,1.2128392E3,3.5931497E3,1.0877784E3,8.900727E1,1.0699369E4,1.1906013E4,8.028766E1,1.9945563E2,1.0133836E3,2.7919387E3,8.012109E2,1.167816E2,9.709969E2,3.2880142E1,5.612713E1,1.0666081E4,3.3288876E1,1.1843717E4,6.2295784E1,6.553839E1,1.3391724E2,2.403164E3,3.8877457E2,5.246732E2,2.7653766E2,5.4242237E1,6.253936E1,5.204653E1,9.189504E2,2.7387264E1,5.492877E0,5.455302E0,5.0671825E1,2.501758E2,1.0415905E4,1.0499786E1,2.278909E1,1.0506866E4,1.3368505E3,1.33029995E1,4.8992783E1,5.9736874E1,5.801517E0,6.528737E1,6.8629875E1,2.367922E3,3.5242138E1,2.4074257E1,3.6470032E2,2.3442503E1,5.012307E2,2.1961546E2,5.692221E1,4.4643433E1,9.598804E0,9.269019E0,4.277751E1,9.017069E2,1.7243423E1,5.546946E0,4.5124878E1,8.4427986E1,1.6574782E2,1.0385534E4,3.0370699E1,5.3517256E0,1.7437365E1,1.0135917E4,3.7094916E2,4.011643E2,9.356861E2,5.174606E0,8.128394E0,4.3591743E1,5.401039E0,5.4666363E1,5.070508E0,4.086031E1,2.4427053E1,2.3388188E3,2.9103195E1,1.876733E1,5.3069267E0,6.3564034E0,3.5834393E2,1.3855892E1,9.586612E0,3.298057E1,4.6825015E2,1.9497682E2,2.4638636E1,4.3933804E1,1.2988409E1,3.212487E1,1.251856E1,3.3508724E1,9.268787E0,8.8614026E2,1.5566675E1,5.51988E0,1.1723544E1,3.8673172E1,4.5754814E1,7.5386324E0,1.5820918E2,1.0380212E4,5.3222795E0,2.4889708E1,5.480991E0,6.8796313E2,9.447954E3,1.0188339E2,2.6906577E2,1.3469539E2,2.6646893E2,8.9935486E2,3.633127E1,1.7633196E1,2.3227114E1,7.2341185E0,1.7192936E1,6.523877E2,1.6864312E3,2.298946E1,6.113736E0,7.1997204E0,6.656172E0,1.5532064E1,1.7448507E1,1.48722E2,4.625482E1,5.6319647E0,1.9006672E1,3.8001873E1,5.9319315E0,7.2841883E0,5.7042212E0,5.1313596E0,7.3872004E0,1.2171893E1,2.133683E1,2.1915268E2,6.669876E2,1.0061609E1,5.505066E0,6.1136E0,3.255957E1,1.674367E1,2.9011143E1,1.6132886E2,5.266343E2,9.1585335E1,1.0298062E1,1.2836317E2,6.332215E0,2.0271191E2,6.3757004E1,1.926593E1,1.7065336E1],"tree_param":{"num_deleted":"0","num_feature":"23","num_nodes":"165","size_leaf_vector":"1"}},{"base_weights":[-1.5163361E-3,1.1854784E0,-1.1435419E0,1.3315443E0,2.8909677E-1,-1.2193696E0,1.1648268E0,1.3572221E0,-6.405523E-1,-9.8204124E-1,1.1368424E0,-1.2676315E0,6.1407155E-1,-1.908463E-1,1.9254546E-1,1.3714203E0,-8.1670314E-2,-1.0490463E0,7.570342E-1,-1.3185729E0,1.2312462E0,1.2438288E0,-1.2192206E0,-7.2831726E-1,-1.355688E0,-1.2703757E0,1.488915E0,1.3805019E0,9.7340935E-1,-1.9814265E-1,8.6134267E-1,-1.1883326E0,9.882868E-2,1.7428505E-1,-6.512454E-2,-1.3396457E0,1.5214047E-1,1.9420984E-1,-1.4366105E-1,1.3690534E0,2.0602435E-1,-1.8624055E-1,-2.1762028E-2,-9.552002E-1,1.3477069E0,-1.3638549E0,-2.834227E-1,-1.9317514E-1,1.1411388E-1,9.596841E-1,1.5164374E0,1.9233069E-1,1.10062E0,-9.1793853E-1,1.9395265E-1,1.168357E0,-6.7383516E-1,-1.2758473E0,-6.0389334E-1,-1.3497689E0,-6.1214287E-2,4.0643352E-1,1.3926957E0,-1.8979646E-1,1.9256325E-1,-1.2583512E0,-1.3670276E-1,1.8983223E-1,9.030345E-2,-1.3869481E0,-1.1259116E0,5.910134E-1,-1.3794956E0,7.755928E-2,1.6277026E-1,2.758254E-1,2.0471291E-1,1.8631995E-1,-6.2423605E-1,7.311138E-2,-1.8819189E-1,6.1583954E-1,1.9747639E-1,-1.564809E-1,-1.2363227E-2,-9.5680946E-1,-1.9024657E-1,-1.1474067E-2,-1.3261692E-1,-1.3726412E0,-1.10527E0,1.5059164E-1,-3.003879E-1,1.9425799E-1,7.763712E-2,-1.3154573E0,1.9135512E-1,-1.5467294E0,6.087737E-1,-1.3879169E0,-7.2765213E-1,-1.3888324E0,7.37342E-2,-5.8794165E-1,1.2476094E0,-1.11094005E-1,-2.0099306E-1,-1.1301109E-2,-1.6666207E-1,-7.687212E-2,1.53045E-1,-8.950638E-2,-1.6021337E-1,-1.925403E-1,-1.4247589E-1,-5.1499113E-2,-1.7494462E-1,-6.146007E-2,-1.6622331E-2,-1.8358588E-1,-6.250009E-2,-2.1775895E-1,-1.16925776E-1,1.7752078E-1,-4.5995157E-2,-1.9327083E-1,-1.7014825E-1,5.5094134E-2,-1.7789434E-1,-1.9449452E-1,-1.5273294E-1,2.5108E-1,-1.7446192E-1,7.7330224E-2,-1.6983904E-1,1.2693954E-1,2.1513717E-1],"categories":[],"categories_nodes":[],"categories_segments":[],"categories_sizes":[],"default_left":[0,0,0,0,0,0,0,0,0,0,0,0,0,0,0,0,0,0,0,0,0,0,0,0,0,0,0,0,0,0,0,0,0,0,0,0,0,0,0,0,0,0,0,0,0,0,0,0,0,0,0,0,0,0,0,0,0,0,0,0,0,0,0,0,0,0,0,0,0,0,0,0,0,0,0,0,0,0,0,0,0,0,0,0,0,0,0,0,0,0,0,0,0,0,0,0,0,0,0,0,0,0,0,0,0,0,0,0,0,0,0,0,0,0,0,0,0,0,0,0,0,0,0,0,0,0,0,0,0,0,0,0,0,0,0,0,0],"id":4,"left_children":[1,3,5,7,9,11,13,15,17,19,21,23,25,-1,-1,27,29,31,33,35,37,39,41,43,45,47,49,51,53,-1,55,57,-1,-1,-1,59,-1,-1,-1,61,63,-1,-1,65,67,69,71,-1,-1,73,75,-1,77,79,-1,81,83,85,87,89,-1,91,93,-1,-1,95,97,-1,-1,99,101,103,105,-1,-1,-1,-1,-1,107,-1,-1,109,-1,-1,-1,111,-1,-1,-1,113,115,-1,117,-1,-1,119,-1,121,123,125,127,129,131,133,135,-1,-1,-1,-1,-1,-1,-1,-1,-1,-1,-1,-1,-1,-1,-1,-1,-1,-1,-1,-1,-1,-1,-1,-1,-1,-1,-1,-1,-1,-1,-1,-1],"loss_changes":[3.599673E4,1.7044512E3,2.3703242E3,5.67834E2,1.9685381E3,1.1602617E3,2.420686E2,2.2591211E2,8.333914E1,5.461013E2,2.7771704E2,6.0536523E2,5.570669E2,0E0,0E0,3.8216797E1,1.3920178E2,2.8369751E1,2.082107E1,3.3748535E1,3.772725E1,1.3599805E2,5.921402E0,8.464004E2,9.571875E1,2.7760544E1,1.9013062E0,5.8027344E0,1.9848552E2,0E0,3.1246277E1,4.5713196E0,0E0,0E0,0E0,5.14209E0,0E0,0E0,0E0,2.0725708E1,2.1309402E2,0E0,0E0,4.0131335E2,1.2514648E0,5.8285156E1,8.153442E1,0E0,0E0,5.4294777E-1,1.5913696E0,0E0,4.108947E1,2.942086E1,0E0,6.6626205E0,2.9107733E0,1.3342743E0,2.74748E0,1.9637451E0,0E0,1.17223625E1,2.3511963E0,0E0,0E0,1.7941492E2,4.618025E2,0E0,0E0,5.328125E0,3.0569128E2,3.7538578E1,2.8363037E-1,0E0,0E0,0E0,0E0,0E0,3.8196454E0,0E0,0E0,1.1215832E1,0E0,0E0,0E0,6.939697E-1,0E0,0E0,0E0,9.0600586E-1,6.084854E0,0E0,2.6563942E-1,0E0,0E0,4.024048E0,0E0,7.277527E-1,1.8078241E2,1.21875E0,1.0833616E1,6.9836426E-1,4.0503067E2,1.3492851E1,1.6810188E0,0E0,0E0,0E0,0E0,0E0,0E0,0E0,0E0,0E0,0E0,0E0,0E0,0E0,0E0,0E0,0E0,0E0,0E0,0E0,0E0,0E0,0E0,0E0,0E0,0E0,0E0,0E0,0E0,0E0,0E0,0E0,0E0],"parents":[2147483647,0,0,1,1,2,2,3,3,4,4,5,5,6,6,7,7,8,8,9,9,10,10,11,11,12,12,15,15,16,16,17,17,18,18,19,19,20,20,21,21,22,22,23,23,24,24,25,25,26,26,27,27,28,28,30,30,31,31,35,35,39,39,40,40,43,43,44,44,45,45,46,46,49,49,50,50,52,52,53,53,55,55,56,56,57,57,58,58,59,59,61,61,62,62,65,65,66,66,69,69,70,70,71,71,72,72,78,78,81,81,85,85,89,89,90,90,92,92,95,95,97,97,98,98,99,99,100,100,101,101,102,102,103,103,104,104],"right_children":[2,4,6,8,10,12,14,16,18,20,22,24,26,-1,-1,28,30,32,34,36,38,40,42,44,46,48,50,52,54,-1,56,58,-1,-1,-1,60,-1,-1,-1,62,64,-1,-1,66,68,70,72,-1,-1,74,76,-1,78,80,-1,82,84,86,88,90,-1,92,94,-1,-1,96,98,-1,-1,100,102,104,106,-1,-1,-1,-1,-1,108,-1,-1,110,-1,-1,-1,112,-1,-1,-1,114,116,-1,118,-1,-1,120,-1,122,124,126,128,130,132,134,136,-1,-1,-1,-1,-1,-1,-1,-1,-1,-1,-1,-1,-1,-1,-1,-1,-1,-1,-1,-1,-1,-1,-1,-1,-1,-1,-1,-1,-1,-1,-1,-1],"split_conditions":[3E1,1E-2,3.25E2,4E0,2.5E-1,5.454E4,5.2E2,7.2E-1,1.2E-1,8.7E-1,3E1,4E0,9.9E-1,-1.908463E-1,1.9254546E-1,9E0,5E-2,7.3E-1,7E0,9.7E-1,1.1E-1,2.6314142E-3,2.6E-1,3.3E1,1.7E-1,3.19E3,3.34E2,3.2E-1,1E0,-1.9814265E-1,6.291439E-4,5.0308682E-2,9.882868E-2,1.7428505E-1,-6.512454E-2,1E0,1.5214047E-1,1.9420984E-1,-1.4366105E-1,7E-1,1.3E-1,-1.8624055E-1,-2.1762028E-2,8E-1,5.0308682E-2,1.111E3,1.5E1,-1.9317514E-1,1.1411388E-1,1.2E-1,1E-2,1.9233069E-1,1.8E-1,3.072682E-2,1.9395265E-1,2.7073386E0,1.2E-1,2.0361848E-2,8E0,8.8E-1,-6.1214287E-2,1E0,3.7044666E-3,-1.8979646E-1,1.9256325E-1,1E0,2.07E2,1.8983223E-1,9.030345E-2,1.4857E4,2.252E3,2.1716349E-2,1.856E3,7.755928E-2,1.6277026E-1,2.758254E-1,2.0471291E-1,1.8631995E-1,1.3E-1,7.311138E-2,-1.8819189E-1,8.8E-1,1.9747639E-1,-1.564809E-1,-1.2363227E-2,2.3729019E-2,-1.9024657E-1,-1.1474067E-2,-1.3261692E-1,1.4292467E-1,4E-2,1.5059164E-1,9.0764254E-2,1.9425799E-1,7.763712E-2,4E0,1.9135512E-1,1.1199305E-4,3.36E2,1.1886552E-1,1.6045E4,3.692332E-1,3.176E3,1.5470282E0,3.7044666E-3,-1.11094005E-1,-2.0099306E-1,-1.1301109E-2,-1.6666207E-1,-7.687212E-2,1.53045E-1,-8.950638E-2,-1.6021337E-1,-1.925403E-1,-1.4247589E-1,-5.1499113E-2,-1.7494462E-1,-6.146007E-2,-1.6622331E-2,-1.8358588E-1,-6.250009E-2,-2.1775895E-1,-1.16925776E-1,1.7752078E-1,-4.5995157E-2,-1.9327083E-1,-1.7014825E-1,5.5094134E-2,-1.7789434E-1,-1.9449452E-1,-1.5273294E-1,2.5108E-1,-1.7446192E-1,7.7330224E-2,-1.6983904E-1,1.2693954E-1,2.1513717E-1],"split_indices":[2,14,5,3,14,2,2,11,12,15,3,3,11,0,0,2,13,13,2,12,13,18,12,5,8,0,3,11,22,0,18,12,0,0,0,0,0,0,0,13,12,0,0,11,12,2,0,0,0,14,18,0,9,11,0,5,13,11,2,13,0,2,15,0,0,22,2,0,0,0,3,18,3,0,0,0,0,0,12,0,0,13,0,0,0,12,0,0,0,12,14,0,12,0,0,0,0,16,2,15,0,12,3,5,15,0,0,0,0,0,0,0,0,0,0,0,0,0,0,0,0,0,0,0,0,0,0,0,0,0,0,0,0,0,0,0,0],"split_type":[0,0,0,0,0,0,0,0,0,0,0,0,0,0,0,0,0,0,0,0,0,0,0,0,0,0,0,0,0,0,0,0,0,0,0,0,0,0,0,0,0,0,0,0,0,0,0,0,0,0,0,0,0,0,0,0,0,0,0,0,0,0,0,0,0,0,0,0,0,0,0,0,0,0,0,0,0,0,0,0,0,0,0,0,0,0,0,0,0,0,0,0,0,0,0,0,0,0,0,0,0,0,0,0,0,0,0,0,0,0,0,0,0,0,0,0,0,0,0,0,0,0,0,0,0,0,0,0,0,0,0,0,0,0,0,0,0],"sum_hessian":[2.655252E4,1.30199E4,1.3532619E4,1.1195159E4,1.8247412E3,1.310268E4,4.2993918E2,1.1051572E4,1.4358601E2,7.299986E2,1.0947427E3,1.2766924E4,3.3575647E2,3.384049E1,3.9609866E2,1.0943634E4,1.0793896E2,1.1130314E2,3.2282883E1,6.340024E2,9.599618E1,1.0476423E3,4.7100307E1,1.7932399E3,1.0973684E4,1.06309494E2,2.2944698E2,1.0697087E4,2.4654675E2,4.43143E1,6.3624657E1,1.0344005E2,7.863086E0,2.2962189E1,9.320696E0,6.2895337E2,5.0490565E0,8.982517E1,6.171003E0,9.3455676E2,1.1308558E2,4.2090088E1,5.0102158E0,1.6170562E3,1.761837E2,1.0890465E4,8.321877E1,1.0091874E2,5.390755E0,1.3115618E1,2.1633136E2,1.0600486E4,9.660068E1,4.469057E1,2.0185619E2,5.322028E1,1.0404377E1,8.8939156E1,1.4500899E1,6.214587E2,7.494672E0,2.2838911E1,9.117179E2,4.8410084E1,6.467549E1,1.1796178E3,4.3743842E2,1.7099911E2,5.1845837E0,9.922609E3,9.678559E2,4.6545795E1,3.667298E1,5.764583E0,7.3510346E0,1.501603E1,2.0131532E2,8.5035866E1,1.15648155E1,1.0304527E1,3.4386044E1,1.7730425E1,3.5489857E1,5.3515563E0,5.05282E0,2.2477207E1,6.6461945E1,6.31741E0,8.183489E0,5.640764E2,5.7382248E1,1.1398845E1,1.1440066E1,9.0657776E2,5.140085E0,1.1550786E3,2.4539177E1,1.5091548E2,2.8652292E2,9.906946E3,1.5662454E1,7.9373816E2,1.7411769E2,1.6687325E1,2.9858469E1,5.067031E0,3.160595E1,6.5304246E0,5.034391E0,5.156328E0,1.2574096E1,1.0279657E1,1.219755E1,5.426855E2,2.139094E1,1.045838E1,4.692387E1,5.6080236E0,5.8320427E0,1.1484388E3,6.6397157E0,1.4576225E2,5.1532283E0,1.6728099E2,1.1924194E2,9.792832E3,1.1411472E2,5.2486563E0,1.0413797E1,7.644758E2,2.9262365E1,7.5423874E1,9.869382E1,5.989549E0,1.0697776E1,1.6004175E1,1.3854294E1],"tree_param":{"num_deleted":"0","num_feature":"23","num_nodes":"137","size_leaf_vector":"1"}},{"base_weights":[4.368688E-4,1.1249627E0,-1.0804724E0,1.2011306E0,-8.150289E-1,-1.1969248E0,5.1591706E-1,1.2361298E0,-6.7266214E-1,-1.3177664E0,1.8407102E-1,-1.2462472E0,5.795152E-1,-1.9573656E-1,1.856833E-1,8.349246E-1,1.3150889E0,-1.0419759E0,1.1019574E0,-1.0610245E-1,-1.8408899E-1,-1.2668985E0,-4.4093144E-1,-1.201575E0,1.3895733E0,-2.075979E-2,1.2497497E0,1.8363413E-1,-8.235999E-2,-1.1815611E0,4.871847E-1,1.235979E0,5.460411E-2,-1.13335E0,-1.3122326E0,-1.2989588E0,8.47325E-1,-1.8291694E-1,9.772062E-2,8.741462E-1,1.9699362E-1,1.173538E0,-9.693596E-1,1.1206832E0,1.8492818E-1,1.894826E-1,-1.7265621E-1,-1.2806871E0,4.972104E-2,-3.084459E-2,1.6452248E-1,1.8959199E-1,6.823897E-2,-1.2105707E0,-6.751943E-1,-1.3149079E0,1.3123946E-1,-1.8269724E-1,-9.5448226E-2,1.286309E0,-1.5839496E-1,6.1477672E-2,1.5303218E-1,1.2208052E0,-6.9126403E-3,-1.2211045E0,1.1270111E0,1.8549754E-1,-8.045956E-1,-9.433081E-2,-1.841391E-1,-1.2252641E0,1.0991579E0,1.2075772E0,-1.227633E0,-6.551318E-1,-1.3196493E0,8.3378755E-2,1.8846484E-1,8.597234E-2,1.8232718E-1,-2.2068042E-2,-1.7564465E-1,8.941328E-3,1.8045782E-1,-1.4939925E-1,7.850228E-2,-1.778568E-1,-1.3704506E-1,7.474289E-2,1.9797057E-1,-1.8398723E-1,2.2798945E-1,-1.7624715E-1,3.8096245E-2,-1.8400113E-1,3.0526139E-2,-1.8360661E-1,-5.458269E-2],"categories":[],"categories_nodes":[],"categories_segments":[],"categories_sizes":[],"default_left":[0,0,0,0,0,0,0,0,0,0,0,0,0,0,0,0,0,0,0,0,0,0,0,0,0,0,0,0,0,0,0,0,0,0,0,0,0,0,0,0,0,0,0,0,0,0,0,0,0,0,0,0,0,0,0,0,0,0,0,0,0,0,0,0,0,0,0,0,0,0,0,0,0,0,0,0,0,0,0,0,0,0,0,0,0,0,0,0,0,0,0,0,0,0,0,0,0,0,0],"id":5,"left_children":[1,3,5,7,9,11,13,15,17,19,-1,21,23,-1,-1,25,27,29,31,-1,-1,33,35,37,39,41,43,-1,45,47,49,51,-1,53,55,57,59,-1,-1,61,-1,63,65,67,-1,-1,-1,69,-1,-1,-1,-1,-1,71,73,75,-1,-1,-1,77,-1,-1,-1,79,-1,81,83,-1,85,-1,-1,87,89,91,93,95,97,-1,-1,-1,-1,-1,-1,-1,-1,-1,-1,-1,-1,-1,-1,-1,-1,-1,-1,-1,-1,-1,-1],"loss_changes":[2.9563707E4,1.7624141E3,2.3061064E3,7.5308594E2,4.865686E2,1.01347266E3,1.3315176E3,3.55625E2,1.3941565E2,1.90979E-1,0E0,1.8648438E2,4.531706E2,0E0,0E0,6.582822E2,7.013965E1,3.7959305E1,3.0157394E0,0E0,0E0,6.489844E1,3.136208E2,2.2218994E1,1.7510681E0,6.882126E2,1.1401367E1,0E0,6.309691E1,2.4987473E1,7.8386602E0,2.225235E0,0E0,9.7755615E1,5.060742E1,6.3238525E-1,1.0054651E2,0E0,0E0,8.1421566E-1,0E0,1.5609436E1,1.8004608E2,1.9975195E2,0E0,0E0,0E0,3.0531921E0,0E0,0E0,0E0,0E0,0E0,8.222266E1,4.2182532E2,2.4695312E1,0E0,0E0,0E0,3.6098022E0,0E0,0E0,0E0,1.3267426E1,0E0,1.3264282E1,6.590046E0,0E0,1.865222E1,0E0,0E0,2.9193848E1,2.0755348E0,1.02889725E2,1.8987183E1,3.5507515E1,3.7597656E0,0E0,0E0,0E0,0E0,0E0,0E0,0E0,0E0,0E0,0E0,0E0,0E0,0E0,0E0,0E0,0E0,0E0,0E0,0E0,0E0,0E0,0E0],"parents":[2147483647,0,0,1,1,2,2,3,3,4,4,5,5,6,6,7,7,8,8,9,9,11,11,12,12,15,15,16,16,17,17,18,18,21,21,22,22,23,23,24,24,25,25,26,26,28,28,29,29,30,30,31,31,33,33,34,34,35,35,36,36,39,39,41,41,42,42,43,43,47,47,53,53,54,54,55,55,59,59,63,63,65,65,66,66,68,68,71,71,72,72,73,73,74,74,75,75,76,76],"right_children":[2,4,6,8,10,12,14,16,18,20,-1,22,24,-1,-1,26,28,30,32,-1,-1,34,36,38,40,42,44,-1,46,48,50,52,-1,54,56,58,60,-1,-1,62,-1,64,66,68,-1,-1,-1,70,-1,-1,-1,-1,-1,72,74,76,-1,-1,-1,78,-1,-1,-1,80,-1,82,84,-1,86,-1,-1,88,90,92,94,96,98,-1,-1,-1,-1,-1,-1,-1,-1,-1,-1,-1,-1,-1,-1,-1,-1,-1,-1,-1,-1,-1,-1],"split_conditions":[3E1,2.12E2,9.920422E2,4E0,9.920422E2,5.454E4,1.86E2,4E0,8E-2,8.9E-1,1.8407102E-1,9.734956E-2,9.9E-1,-1.9573656E-1,1.856833E-1,5.2E-1,8.2713336E-1,3E0,1.33E2,-1.0610245E-1,-1.8408899E-1,1.4E2,5.8E-1,3.19E3,3.34E2,4E0,9.920422E2,1.8363413E-1,2.9E1,5.131E3,1.5470282E0,3.218691E-1,5.460411E-2,2.175E3,1.6711E4,1.456E3,3E1,-1.8291694E-1,9.772062E-2,1.2E-1,1.9699362E-1,1.24182634E-1,9.7E-1,3E-1,1.8492818E-1,1.894826E-1,-1.7265621E-1,2E0,4.972104E-2,-3.084459E-2,1.6452248E-1,1.8959199E-1,6.823897E-2,8.1E-1,2.491E3,4E0,1.3123946E-1,-1.8269724E-1,-9.5448226E-2,3.2E2,-1.5839496E-1,6.1477672E-2,1.5303218E-1,4E-2,-6.9126403E-3,2.308136E-2,5E-1,1.8549754E-1,1.2E-1,-9.433081E-2,-1.841391E-1,8E-1,9.4E-1,5.78E2,1.6711E4,8.2E-1,3.1E2,8.3378755E-2,1.8846484E-1,8.597234E-2,1.8232718E-1,-2.2068042E-2,-1.7564465E-1,8.941328E-3,1.8045782E-1,-1.4939925E-1,7.850228E-2,-1.778568E-1,-1.3704506E-1,7.474289E-2,1.9797057E-1,-1.8398723E-1,2.2798945E-1,-1.7624715E-1,3.8096245E-2,-1.8400113E-1,3.0526139E-2,-1.8360661E-1,-5.458269E-2],"split_indices":[2,10,1,3,1,2,2,4,17,11,0,14,11,0,0,13,11,4,3,0,0,10,13,0,3,10,1,0,10,3,5,11,0,3,2,2,3,0,0,14,0,11,15,11,0,0,0,10,0,0,0,0,0,18,3,3,0,0,0,2,0,0,0,17,0,11,16,0,16,0,0,11,17,2,2,13,0,0,0,0,0,0,0,0,0,0,0,0,0,0,0,0,0,0,0,0,0,0,0],"split_type":[0,0,0,0,0,0,0,0,0,0,0,0,0,0,0,0,0,0,0,0,0,0,0,0,0,0,0,0,0,0,0,0,0,0,0,0,0,0,0,0,0,0,0,0,0,0,0,0,0,0,0,0,0,0,0,0,0,0,0,0,0,0,0,0,0,0,0,0,0,0,0,0,0,0,0,0,0,0,0,0,0,0,0,0,0,0,0,0,0,0,0,0,0,0,0,0,0,0,0],"sum_hessian":[2.432005E4,1.1919519E4,1.2400533E4,1.1469581E4,4.4993756E2,1.1557681E4,8.428522E2,1.1259612E4,2.0996922E2,3.6460925E2,8.532831E1,1.1245744E4,3.1193674E2,2.5155229E2,5.9129987E2,1.8534556E3,9.406156E3,1.7414168E2,3.5827553E1,5.220369E0,3.593889E2,1.0964013E4,2.8173175E2,9.736817E1,2.1456856E2,6.054689E2,1.2479867E3,9.37049E3,3.566587E1,1.5978358E2,1.4358085E1,2.9509516E1,6.3180385E0,2.7851936E3,8.178819E3,1.6909787E2,1.12633865E2,9.217458E1,5.1935906E0,1.2305618E1,2.0226294E2,2.6791888E2,3.3755E2,4.8318375E2,7.6480286E2,1.5798183E1,1.986769E1,1.5027298E2,9.510607E0,7.4492126E0,6.9088726E0,2.4497028E1,5.012488E0,2.3820627E3,4.031308E2,8.169548E3,9.271139E0,1.6401273E2,5.085151E0,9.253505E1,2.0098814E1,5.243873E0,7.0617456E0,2.579533E2,9.965562E0,3.0173352E2,3.5816467E1,4.353023E2,4.7881454E1,1.1207599E1,1.3906538E2,2.3674714E3,1.4591209E1,9.118305E1,3.1194775E2,5.928416E1,8.1102637E3,9.315109E0,8.321994E1,3.4610157E1,2.2334317E2,1.1620283E1,2.9011322E2,5.1439223E0,3.0672546E1,4.0182343E1,7.699111E0,1.9314274E3,4.3604413E2,6.3137E0,8.27751E0,1.2989649E1,7.8193405E1,3.0407104E2,7.8767095E0,3.332349E1,2.5960669E1,8.1048677E3,5.395793E0],"tree_param":{"num_deleted":"0","num_feature":"23","num_nodes":"99","size_leaf_vector":"1"}},{"base_weights":[1.1244308E-3,1.0777007E0,-1.0301336E0,1.1501834E0,-7.77564E-1,-1.0982031E0,1.0585141E0,1.1840707E0,-6.1741316E-1,-1.7682992E-1,9.990884E-1,-1.1422768E0,5.434947E-1,-1.7288984E-1,1.7550342E-1,1.2417024E0,7.3338795E-1,6.619875E-1,-1.0953007E0,1.7729811E-1,-1.6185078E-1,-6.2105143E-1,-1.2302375E0,-1.1369921E0,1.3128457E0,1.2583408E0,3.6950725E-1,1.1100181E0,-1.1834573E0,-7.169448E-2,1.1833658E0,-1.1650883E0,4.30715E-2,-8.2099384E-1,1.1750742E0,-1.2392341E0,-1.606932E-1,-3.6814023E-2,-1.1936879E0,1.870443E-1,8.70436E-1,1.1596153E0,1.7544277E-1,-9.1027904E-1,1.7659092E-1,5.617269E-1,1.7554171E-1,-1.7936589E-1,-6.809552E-2,-1.7658924E-1,1.1890777E0,9.675111E-2,1.7952046E-1,-1.2381868E0,4.633499E-2,-1.1173913E0,-8.256468E-2,1.2270144E0,-2.4644608E-2,-1.2628846E0,-1.0005317E0,-9.7776455E-1,7.6007706E-1,-1.7331415E-1,-8.3942086E-1,4.276113E-2,1.581955E-1,1.2616827E0,-1.9045302E-1,2.4681386E-1,-1.255656E0,-6.6299707E-1,1.2203623E0,1.6862707E-1,-1.702059E-1,8.940792E-2,2.138351E-1,-8.451219E-1,-1.778261E-1,-1.1683407E0,1.7161778E-1,-1.3700806E0,5.6504893E-1,1.7432775E-1,8.377831E-1,-1.1788157E0,-1.2667962E0,-1.2639573E0,1.7823878E-1,9.171159E-2,-1.7069681E-1,-1.22217305E-1,1.2008952E0,-1.5813975E-1,-4.30519E-2,1.7649926E-1,1.00447826E-1,-1.8444878E-1,-7.943497E-2,-1.3708737E-1,1.7809126E-1,1.7781149E-1,2.5187043E-2,-2.4594825E-2,-1.6458255E-1,-1.5490434E-1,-1.7765933E-1,-1.9317071E-1,-1.0494928E-1,1.6379495E-1,-4.3462828E-2,6.83268E-2,1.4304629E-1,-4.8639335E-2,-1.7499815E-1,-9.530709E-2,-1.7632453E-1,-1.7741583E-1,-1.2920946E-1,2.1183968E-1,-1.51114E-1,1.8537553E-1,7.22694E-2],"categories":[],"categories_nodes":[],"categories_segments":[],"categories_sizes":[],"default_left":[0,0,0,0,0,0,0,0,0,0,0,0,0,0,0,0,0,0,0,0,0,0,0,0,0,0,0,0,0,0,0,0,0,0,0,0,0,0,0,0,0,0,0,0,0,0,0,0,0,0,0,0,0,0,0,0,0,0,0,0,0,0,0,0,0,0,0,0,0,0,0,0,0,0,0,0,0,0,0,0,0,0,0,0,0,0,0,0,0,0,0,0,0,0,0,0,0,0,0,0,0,0,0,0,0,0,0,0,0,0,0,0,0,0,0,0,0,0,0,0,0,0,0],"id":6,"left_children":[1,3,5,7,9,11,13,15,17,-1,19,21,23,-1,-1,25,27,29,31,-1,-1,33,35,37,39,41,43,45,47,49,51,53,-1,55,57,59,61,-1,63,-1,65,67,-1,69,-1,71,-1,-1,73,-1,75,-1,-1,77,-1,79,81,83,-1,85,87,89,91,-1,93,-1,-1,95,-1,-1,97,99,101,-1,-1,-1,-1,103,-1,105,-1,107,109,-1,111,113,115,117,119,-1,-1,-1,121,-1,-1,-1,-1,-1,-1,-1,-1,-1,-1,-1,-1,-1,-1,-1,-1,-1,-1,-1,-1,-1,-1,-1,-1,-1,-1,-1,-1,-1,-1],"loss_changes":[2.4509775E4,1.4533359E3,1.6042344E3,6.2338965E2,3.58169E2,7.907529E2,1.68444E2,2.6401758E2,1.20682236E2,0E0,5.458699E1,4.8681934E2,3.7148865E2,0E0,0E0,1.307539E2,8.379664E2,2.0733006E1,1.4403748E1,0E0,0E0,5.5315094E2,8.734668E1,4.155113E0,1.6229553E0,1.3183594E0,1.9780132E2,8.0167114E1,2.252658E1,3.6804905E1,7.588005E-1,1.5378738E1,0E0,3.028595E2,1.106427E1,4.96709E1,5.8704952E1,0E0,5.281677E-1,0E0,2.0771894E0,7.629169E1,0E0,6.812906E1,0E0,1.7211974E2,0E0,0E0,2.7611395E1,0E0,1.2769814E0,0E0,0E0,9.95224E-1,0E0,1.1976282E2,3.3224615E2,4.8416138E-1,0E0,1.2050781E0,2.5427686E2,1.7670872E1,2.7630753E1,0E0,1.8541765E0,0E0,0E0,1.982727E-1,0E0,0E0,2.314293E0,4.825348E1,8.14093E0,0E0,0E0,0E0,0E0,3.211564E0,0E0,4.32959E0,0E0,5.034027E-1,1.429682E2,0E0,3.2081795E-1,2.45542E1,3.9570312E0,1.4456787E0,2.5736948E2,0E0,0E0,0E0,1.9529152E0,0E0,0E0,0E0,0E0,0E0,0E0,0E0,0E0,0E0,0E0,0E0,0E0,0E0,0E0,0E0,0E0,0E0,0E0,0E0,0E0,0E0,0E0,0E0,0E0,0E0,0E0,0E0,0E0,0E0,0E0],"parents":[2147483647,0,0,1,1,2,2,3,3,4,4,5,5,6,6,7,7,8,8,10,10,11,11,12,12,15,15,16,16,17,17,18,18,21,21,22,22,23,23,24,24,25,25,26,26,27,27,28,28,29,29,30,30,31,31,33,33,34,34,35,35,36,36,38,38,40,40,41,41,43,43,45,45,48,48,50,50,53,53,55,55,56,56,57,57,59,59,60,60,61,61,62,62,64,64,67,67,70,70,71,71,72,72,77,77,79,79,81,81,82,82,84,84,85,85,86,86,87,87,88,88,92,92],"right_children":[2,4,6,8,10,12,14,16,18,-1,20,22,24,-1,-1,26,28,30,32,-1,-1,34,36,38,40,42,44,46,48,50,52,54,-1,56,58,60,62,-1,64,-1,66,68,-1,70,-1,72,-1,-1,74,-1,76,-1,-1,78,-1,80,82,84,-1,86,88,90,92,-1,94,-1,-1,96,-1,-1,98,100,102,-1,-1,-1,-1,104,-1,106,-1,108,110,-1,112,114,116,118,120,-1,-1,-1,122,-1,-1,-1,-1,-1,-1,-1,-1,-1,-1,-1,-1,-1,-1,-1,-1,-1,-1,-1,-1,-1,-1,-1,-1,-1,-1,-1,-1,-1,-1],"split_conditions":[3E1,2.12E2,3.25E2,4E0,1E0,5.454E4,5.2E2,2.9E-1,8.89E2,-1.7682992E-1,8.65E2,4E0,9.9E-1,-1.7288984E-1,1.7550342E-1,7E0,3.0481696E-2,9E-2,5.6E-1,1.7729811E-1,-1.6185078E-1,2.6E1,1.7E-1,4E0,2.1E-1,3.1660832E-2,1E0,3.756496E0,2.23E2,1E0,2.56E2,2.7073386E0,4.30715E-2,8E-1,6.000665E-2,1.111E3,9.9E-1,-3.6814023E-2,1.1199305E-4,1.870443E-1,8E-2,7.9448535E2,1.7544277E-1,3.45E2,1.7659092E-1,9.1E-1,1.7554171E-1,-1.7936589E-1,8.65E2,-1.7658924E-1,6.7E1,9.675111E-2,1.7952046E-1,3E1,4.633499E-2,1E0,2.07E2,3E-2,-2.4644608E-2,1.0926067E-1,2.23E2,8.8E1,2.1716349E-2,-1.7331415E-1,2.18708E6,4.276113E-2,1.581955E-1,6E-2,-1.9045302E-1,2.4681386E-1,2.7073386E0,3E-1,6.23E2,1.6862707E-1,-1.702059E-1,8.940792E-2,2.138351E-1,1.0278628E1,-1.778261E-1,1.058E3,1.7161778E-1,1.1199305E-4,3.36E2,1.7432775E-1,4.5E-1,2.3729019E-2,1.0920805E0,3.692332E-1,3.176E3,9.171159E-2,-1.7069681E-1,-1.22217305E-1,1.3E-1,-1.5813975E-1,-4.30519E-2,1.7649926E-1,1.00447826E-1,-1.8444878E-1,-7.943497E-2,-1.3708737E-1,1.7809126E-1,1.7781149E-1,2.5187043E-2,-2.4594825E-2,-1.6458255E-1,-1.5490434E-1,-1.7765933E-1,-1.9317071E-1,-1.0494928E-1,1.6379495E-1,-4.3462828E-2,6.83268E-2,1.4304629E-1,-4.8639335E-2,-1.7499815E-1,-9.530709E-2,-1.7632453E-1,-1.7741583E-1,-1.2920946E-1,2.1183968E-1,-1.51114E-1,1.8537553E-1,7.22694E-2],"split_indices":[2,10,5,3,2,2,2,11,19,0,19,3,11,0,0,2,18,13,12,0,0,5,8,10,13,12,22,5,19,2,19,5,0,11,12,2,11,0,16,0,14,20,0,19,0,13,0,0,19,0,3,0,0,3,0,22,2,12,0,11,19,2,18,0,2,0,0,14,0,0,5,16,19,0,0,0,0,10,0,2,0,16,2,0,11,12,10,12,3,0,0,0,13,0,0,0,0,0,0,0,0,0,0,0,0,0,0,0,0,0,0,0,0,0,0,0,0,0,0,0,0,0,0],"split_type":[0,0,0,0,0,0,0,0,0,0,0,0,0,0,0,0,0,0,0,0,0,0,0,0,0,0,0,0,0,0,0,0,0,0,0,0,0,0,0,0,0,0,0,0,0,0,0,0,0,0,0,0,0,0,0,0,0,0,0,0,0,0,0,0,0,0,0,0,0,0,0,0,0,0,0,0,0,0,0,0,0,0,0,0,0,0,0,0,0,0,0,0,0,0,0,0,0,0,0,0,0,0,0,0,0,0,0,0,0,0,0,0,0,0,0,0,0,0,0,0,0,0,0],"sum_hessian":[2.2074344E4,1.0799852E4,1.1274492E4,1.0394146E4,4.0570563E2,1.091911E4,3.553819E2,1.0198948E4,1.9519771E2,3.1767365E2,8.8032005E1,1.0633932E4,2.8517874E2,2.8445248E1,3.2693668E2,9.041057E3,1.1578922E3,5.2978474E1,1.4221922E2,7.844123E1,9.5907755E0,1.5366022E3,9.097329E3,8.940791E1,1.9577083E2,8.871379E3,1.696775E2,9.680971E2,1.8979507E2,2.2366667E1,3.0611809E1,1.3565205E2,6.5671697E0,1.3831721E3,1.5343002E2,9.021287E3,7.604251E1,5.8025723E0,8.360535E1,1.806286E2,1.5142213E1,2.8785623E2,8.583522E3,7.006471E1,9.9612785E1,2.1137386E2,7.5672327E2,1.7314232E2,1.6652765E1,1.1464882E1,1.0901784E1,6.8773084E0,2.37345E1,1.2950711E2,6.1449428E0,9.8663446E2,3.965377E2,1.4784406E2,5.5859613E0,8.204134E3,8.171535E2,4.025723E1,3.5785282E1,7.061801E1,1.298733E1,5.5642486E0,9.577965E0,2.7717133E2,1.0684911E1,7.513753E0,6.2550964E1,7.3917885E1,1.3745598E2,7.8764524E0,8.776312E0,5.35451E0,5.547274E0,1.41311655E1,1.15375946E2,9.6620233E2,2.0432186E1,1.3233261E2,2.6420508E2,1.3634627E2,1.1497802E1,3.7819336E2,7.82594E3,6.6783655E2,1.4931696E2,5.1087675E0,3.514846E1,7.3745513E0,2.8410728E1,7.581775E0,5.4055557E0,2.720709E2,5.1004233E0,5.5851177E1,6.6997848E0,6.3814392E1,1.0103494E1,1.2995003E2,7.505939E0,5.261179E0,8.869987E0,6.518116E2,3.143907E2,1.27168816E2,5.1637936E0,1.553784E2,1.08826675E2,5.3524866E0,6.145315E0,3.3565483E1,3.4462787E2,1.542152E1,7.8105186E3,6.424914E2,2.5345152E1,7.226609E1,7.705087E1,2.2996758E1,5.4139724E0],"tree_param":{"num_deleted":"0","num_feature":"23","num_nodes":"123","size_leaf_vector":"1"}},{"base_weights":[-6.328348E-4,1.0373755E0,-9.9106413E-1,1.1666042E0,2.5322443E-1,-1.0991254E0,4.7771227E-1,1.1867509E0,-2.5052127E-1,-6.999976E-1,1.7106205E-1,-1.1445235E0,5.20994E-1,-1.2807593E0,1.7260882E-1,1.2079383E0,4.7412902E-1,-8.9260465E-1,7.8972995E-1,1.0654666E-1,-1.1604071E0,-1.1812984E0,-6.967532E-1,-1.0803618E0,1.2548081E0,-1.7973143E-1,-1.0145574E-1,1.2112914E0,8.467308E-1,-8.137583E-1,1.7042892E-1,-1.6728711E-1,1.5839908E-1,1.0909745E0,-1.2989847E-1,1.0145195E0,-1.1410447E0,-1.7043385E-1,-3.0787042E-1,-1.1896578E0,-1.8074124E-1,-9.3223846E-1,7.3312294E-1,-1.688719E-1,9.828743E-2,1.7858899E-1,8.405521E-1,1.0883241E0,1.2175009E0,-1.17035896E-1,1.1008651E0,-1.0927178E0,2.4549669E-1,8.127614E-1,1.7136864E-1,8.0394036E-1,1.7935514E-1,-1.7004593E-1,-3.8579506E-1,9.7832716E-1,-1.746077E-1,-1.0284733E0,-1.2208686E0,4.9783066E-1,-1.6226587E-1,-5.16037E-1,-1.712485E-1,-1.0105116E0,1.1310672E0,4.8751887E-2,1.5928294E-1,1.1841387E0,-1.1507916E0,1.694993E-1,9.0379417E-1,5.7946883E-2,1.6095331E-1,-1.1756686E0,-3.6719136E-3,6.5340094E-2,1.4726809E-1,-1.6824506E-1,1.1762123E0,-1.4798895E-1,4.5938756E-2,1.7349717E-1,5.7125557E-2,-7.126418E-1,-1.1537744E0,-1.7016336E-1,-7.8200436E-1,8.3142614E-1,-1.5004568E-1,-1.0439999E0,1.4242438E0,-1.6099204E-1,-8.353405E-2,4.671875E-1,1.7105253E-1,1.6919182E-1,7.303063E-2,-6.1742485E-2,-2.1888892E-1,-4.9513403E-2,1.675019E-1,-1.7191888E-1,-6.3339636E-2,8.634087E-2,1.6836855E-1,-6.327344E-2,-1.6884573E-1,-1.6285948E-1,-1.24034405E-1,-1.4107198E-1,9.582104E-2,-5.004936E-2,1.5653907E-1,-1.5558594E-1,-1.0794821E-3,1.6664618E-1,2.8291813E-1,1.3637388E-1,-1.4059396E-2],"categories":[],"categories_nodes":[],"categories_segments":[],"categories_sizes":[],"default_left":[0,0,0,0,0,0,0,0,0,0,0,0,0,0,0,0,0,0,0,0,0,0,0,0,0,0,0,0,0,0,0,0,0,0,0,0,0,0,0,0,0,0,0,0,0,0,0,0,0,0,0,0,0,0,0,0,0,0,0,0,0,0,0,0,0,0,0,0,0,0,0,0,0,0,0,0,0,0,0,0,0,0,0,0,0,0,0,0,0,0,0,0,0,0,0,0,0,0,0,0,0,0,0,0,0,0,0,0,0,0,0,0,0,0,0,0,0,0,0,0,0,0,0],"id":7,"left_children":[1,3,5,7,9,11,13,15,17,19,-1,21,23,25,-1,27,29,31,33,35,37,39,41,43,45,-1,-1,47,49,51,-1,-1,-1,53,-1,55,57,-1,59,61,63,65,67,-1,-1,-1,69,71,73,-1,75,77,-1,79,-1,81,-1,-1,83,85,-1,87,89,91,-1,93,-1,95,97,-1,-1,99,101,-1,103,-1,-1,105,-1,-1,-1,-1,107,-1,-1,-1,-1,109,111,-1,113,115,-1,117,119,-1,-1,121,-1,-1,-1,-1,-1,-1,-1,-1,-1,-1,-1,-1,-1,-1,-1,-1,-1,-1,-1,-1,-1,-1,-1,-1,-1],"loss_changes":[2.0480566E4,9.853887E2,1.6185342E3,2.3870898E2,1.283445E3,6.9902734E2,9.40392E2,1.23743164E2,7.9438805E1,2.5924332E2,0E0,1.5128613E2,3.063221E2,4.133911E-1,0E0,8.658203E0,2.3262674E2,4.7609726E1,2.465637E1,2.894429E2,2.4278748E1,7.1171875E1,2.3756775E2,2.0502975E1,1.0887146E0,0E0,0E0,4.7216797E0,3.3903156E1,6.581294E1,0E0,0E0,0E0,5.3931046E-1,0E0,7.5276184E0,6.1690826E0,0E0,4.127053E1,4.132422E1,4.8685875E1,7.461835E1,7.055648E1,0E0,0E0,0E0,1.7927599E0,8.505698E1,1.9189453E0,0E0,2.1153946E0,7.111229E0,0E0,8.6508465E-1,0E0,6.618493E1,0E0,0E0,6.164627E0,1.7028046E0,0E0,5.376599E1,7.397461E0,2.366645E1,0E0,2.6218597E2,0E0,4.5724297E-1,4.8031235E0,0E0,0E0,7.3670044E0,4.24065E0,0E0,1.3473646E1,0E0,0E0,2.7010193E0,0E0,0E0,0E0,0E0,6.525574E-1,0E0,0E0,0E0,0E0,5.041063E1,3.41333E0,0E0,1.6380598E1,1.3123915E1,0E0,1.5529175E1,5.1254044E0,0E0,0E0,3.6680431E0,0E0,0E0,0E0,0E0,0E0,0E0,0E0,0E0,0E0,0E0,0E0,0E0,0E0,0E0,0E0,0E0,0E0,0E0,0E0,0E0,0E0,0E0,0E0,0E0,0E0],"parents":[2147483647,0,0,1,1,2,2,3,3,4,4,5,5,6,6,7,7,8,8,9,9,11,11,12,12,13,13,15,15,16,16,17,17,18,18,19,19,20,20,21,21,22,22,23,23,24,24,27,27,28,28,29,29,33,33,35,35,36,36,38,38,39,39,40,40,41,41,42,42,46,46,47,47,48,48,50,50,51,51,53,53,55,55,58,58,59,59,61,61,62,62,63,63,65,65,67,67,68,68,71,71,72,72,74,74,77,77,82,82,87,87,88,88,90,90,91,91,93,93,94,94,97,97],"right_children":[2,4,6,8,10,12,14,16,18,20,-1,22,24,26,-1,28,30,32,34,36,38,40,42,44,46,-1,-1,48,50,52,-1,-1,-1,54,-1,56,58,-1,60,62,64,66,68,-1,-1,-1,70,72,74,-1,76,78,-1,80,-1,82,-1,-1,84,86,-1,88,90,92,-1,94,-1,96,98,-1,-1,100,102,-1,104,-1,-1,106,-1,-1,-1,-1,108,-1,-1,-1,-1,110,112,-1,114,116,-1,118,120,-1,-1,122,-1,-1,-1,-1,-1,-1,-1,-1,-1,-1,-1,-1,-1,-1,-1,-1,-1,-1,-1,-1,-1,-1,-1,-1,-1],"split_conditions":[3E1,1E-2,9.920422E2,7.2E-1,9.920422E2,5.454E4,1.86E2,7E0,1.8E-1,5.3E-1,1.7106205E-1,8E-1,9.9E-1,8.04491E-2,1.7260882E-1,3.2E-1,1E0,1.6783182E-1,8.65E2,1E0,2.23E2,1.7E-1,9E-2,3.19E3,2.1E-1,-1.7973143E-1,-1.0145574E-1,4.2292714E-2,2.23E2,9.920422E2,1.7042892E-1,-1.6728711E-1,1.5839908E-1,1.5470282E0,-1.2989847E-1,9E-2,1E0,-1.7043385E-1,1E0,5.4E-1,1.5E1,8.65E2,3.73E2,-1.688719E-1,9.828743E-2,1.7858899E-1,5.042E3,7.9448535E2,2.1E-1,-1.17035896E-1,2.7073386E0,2.7073386E0,2.4549669E-1,9.920422E2,1.7136864E-1,5.4813087E-1,1.7935514E-1,-1.7004593E-1,5.0308682E-2,9.3E-1,-1.746077E-1,3E-2,3.1E1,1E-2,-1.6226587E-1,6.23E2,-1.712485E-1,1.9E1,1.1E-1,4.8751887E-2,1.5928294E-1,4.37E2,1.09022055E-2,1.694993E-1,3.37E2,5.7946883E-2,1.6095331E-1,5.4E-1,-3.6719136E-3,6.5340094E-2,1.4726809E-1,-1.6824506E-1,1.5470282E0,-1.4798895E-1,4.5938756E-2,1.7349717E-1,5.7125557E-2,1.274E3,5.901239E-2,-1.7016336E-1,1.51E3,2.4124054E-2,-1.5004568E-1,4E0,2.3729019E-2,-1.6099204E-1,-8.353405E-2,2E0,1.7105253E-1,1.6919182E-1,7.303063E-2,-6.1742485E-2,-2.1888892E-1,-4.9513403E-2,1.675019E-1,-1.7191888E-1,-6.3339636E-2,8.634087E-2,1.6836855E-1,-6.327344E-2,-1.6884573E-1,-1.6285948E-1,-1.24034405E-1,-1.4107198E-1,9.582104E-2,-5.004936E-2,1.5653907E-1,-1.5558594E-1,-1.0794821E-3,1.6664618E-1,2.8291813E-1,1.3637388E-1,-1.4059396E-2],"split_indices":[2,14,1,11,1,2,2,2,13,11,0,13,11,12,0,11,22,16,19,2,19,8,14,0,13,0,0,12,19,1,0,0,0,5,0,17,0,0,2,11,0,19,19,0,0,0,0,20,11,0,5,5,0,1,0,6,0,0,12,6,0,12,0,14,0,19,0,0,14,0,0,20,11,0,19,0,0,12,0,0,0,0,5,0,0,0,0,2,17,0,2,17,0,0,12,0,0,5,0,0,0,0,0,0,0,0,0,0,0,0,0,0,0,0,0,0,0,0,0,0,0,0,0],"split_type":[0,0,0,0,0,0,0,0,0,0,0,0,0,0,0,0,0,0,0,0,0,0,0,0,0,0,0,0,0,0,0,0,0,0,0,0,0,0,0,0,0,0,0,0,0,0,0,0,0,0,0,0,0,0,0,0,0,0,0,0,0,0,0,0,0,0,0,0,0,0,0,0,0,0,0,0,0,0,0,0,0,0,0,0,0,0,0,0,0,0,0,0,0,0,0,0,0,0,0,0,0,0,0,0,0,0,0,0,0,0,0,0,0,0,0,0,0,0,0,0,0,0,0],"sum_hessian":[1.9919258E4,9.726003E3,1.0193255E4,8.34951E3,1.3764932E3,9.494942E3,6.9831305E2,8.232632E3,1.1687779E2,6.967953E2,6.7969794E2,9.236418E3,2.5852444E2,2.111875E2,4.8712555E2,7.9942554E3,2.383769E2,7.235773E1,4.4520065E1,2.5349384E2,4.4330142E2,8.533901E3,7.025164E2,8.109145E1,1.77433E2,2.0552032E2,5.6671753E0,7.918395E3,7.586019E1,8.7797455E1,1.5057945E2,6.3124966E1,9.232763E0,3.8209644E1,6.310421E0,1.4682458E2,1.0666926E2,4.1144907E2,3.1852362E1,8.463005E3,7.089618E1,6.034781E2,9.903832E1,7.573702E1,5.3544292E0,1.637397E2,1.369329E1,3.8911026E2,7.5292847E3,9.622728E0,6.6237465E1,7.974776E1,8.049693E0,1.5140898E1,2.3068745E1,8.539027E1,6.143431E1,9.5702E1,1.0967261E1,1.3498703E1,1.8353659E1,1.3783936E3,7.0846113E3,4.2288708E1,2.8607471E1,2.5349046E2,3.499876E2,1.8117085E1,8.092124E1,6.0754457E0,7.6178446E0,3.7359482E2,1.5515444E1,7.4958413E3,3.344356E1,5.6884484E0,6.0549015E1,7.389664E1,5.8511214E0,7.542272E0,7.598626E0,1.2972024E1,7.241824E1,5.382725E0,5.5845366E0,8.343384E0,5.1553183E0,3.9342404E2,9.849695E2,7.039734E3,4.487754E1,3.529408E1,6.9946294E0,1.9963141E2,5.3859055E1,1.198968E1,6.1274037E0,1.123242E1,6.968882E1,3.5526605E2,1.832877E1,6.577259E0,8.938184E0,6.4074893E0,2.7036074E1,6.750859E1,6.3880453E0,5.3391614E0,6.707908E1,2.61139E2,1.3228503E2,9.208088E2,6.416069E1,3.9023537E1,5.854004E0,6.9449596E0,2.834912E1,1.8612773E2,1.350367E1,4.146423E1,1.2394825E1,5.519957E0,5.7124624E0],"tree_param":{"num_deleted":"0","num_feature":"23","num_nodes":"123","size_leaf_vector":"1"}},{"base_weights":[1.5226884E-3,1.0058005E0,-9.556527E-1,1.0734092E0,-7.246903E-1,-1.059658E0,4.6249482E-1,5.832004E-1,1.1826062E0,-1.1794918E0,1.6420388E-1,-1.1036414E0,4.987687E-1,-1.2320213E0,1.6762382E-1,-2.265931E-1,1.0970862E0,-7.079273E-2,1.6514178E-1,-1.6552922E-1,-1.0892527E-1,-1.1407362E0,-6.6026664E-1,1.2034146E0,-1.0357811E0,-1.7308724E-1,-9.178411E-2,8.473653E-1,-8.751716E-1,1.1327891E0,4.276316E-1,1.6259338E-1,-1.5637824E-1,-1.1482158E0,-8.8797204E-2,-8.98153E-1,6.347826E-1,1.7120607E-1,9.550973E-2,-1.6325176E-1,9.731139E-2,-1.8478249E-1,1.081071E0,-1.0353713E0,9.756131E-1,1.1787273E0,7.140398E-1,1.0843232E0,-9.5881397E-1,-1.0194339E0,-1.6529138E-1,9.685993E-1,-1.6076118E-1,-1.6563068E-1,-5.242269E-1,-9.050444E-1,9.441638E-1,-6.27677E-1,1.1906468E-1,1.2420119E-2,1.5462323E-1,-1.0820844E0,1.3858575E-1,1.9835439E-2,1.5880413E-1,1.6481742E-1,6.5664107E-1,-1.6393653E-1,1.6390322E-1,7.8666985E-2,1.616138E-1,-7.897481E-2,-1.5204737E-1,-6.832976E-1,-1.098529E0,2.0254355E-2,1.6553025E-1,1.1214873E0,-1.0340176E0,-6.173379E-2,-1.6255246E-1,1.1176928E0,2.3803161E-1,-1.1469317E-1,4.1330256E-2,-1.571765E-1,3.0893E-2,1.4142832E-1,3.1643562E-2,-4.8645437E-2,-1.5879719E-1,-1.4638214E-1,-1.6875505E-1,1.9476573E-1,-1.9389863E-1,-5.797944E-2,-1.7149624E-1,1.762203E-2,1.7324944E-1,-1.9303763E-1,1.5580979E-1],"categories":[],"categories_nodes":[],"categories_segments":[],"categories_sizes":[],"default_left":[0,0,0,0,0,0,0,0,0,0,0,0,0,0,0,0,0,0,0,0,0,0,0,0,0,0,0,0,0,0,0,0,0,0,0,0,0,0,0,0,0,0,0,0,0,0,0,0,0,0,0,0,0,0,0,0,0,0,0,0,0,0,0,0,0,0,0,0,0,0,0,0,0,0,0,0,0,0,0,0,0,0,0,0,0,0,0,0,0,0,0,0,0,0,0,0,0,0,0,0,0],"id":8,"left_children":[1,3,5,7,9,11,13,15,17,19,-1,21,23,25,-1,27,29,31,-1,-1,-1,33,35,37,39,-1,-1,41,43,45,47,-1,-1,49,51,53,55,-1,-1,-1,-1,57,59,61,63,65,67,69,71,73,-1,75,-1,-1,77,79,81,83,-1,-1,-1,85,-1,-1,-1,-1,87,-1,-1,-1,-1,-1,-1,89,91,-1,-1,93,95,-1,-1,97,99,-1,-1,-1,-1,-1,-1,-1,-1,-1,-1,-1,-1,-1,-1,-1,-1,-1,-1],"loss_changes":[1.7203021E4,1.0225283E3,1.3519785E3,4.4923633E2,2.8646637E2,5.857285E2,7.90404E2,6.382758E2,4.178711E1,2.0028687E-1,0E0,1.3580762E2,2.5537592E2,5.543823E-1,0E0,4.159216E2,2.1938599E1,3.7093544E1,0E0,0E0,0E0,6.017285E1,1.987922E2,1.4610138E0,1.86726E1,0E0,0E0,5.4458984E1,1.11341156E2,1.6279663E1,4.574885E1,0E0,0E0,3.8271484E1,6.337206E1,5.8936493E1,4.8700836E1,0E0,0E0,0E0,0E0,2.0076443E1,5.4972687E0,3.3630157E1,4.01396E0,1.8913574E0,8.097966E1,7.054863E-1,2.3684692E-1,4.7644043E1,0E0,4.980438E0,0E0,0E0,2.0309038E2,1.5872755E0,1.0041641E1,5.7679234E0,0E0,0E0,0E0,2.1307465E1,0E0,0E0,0E0,0E0,1.6112432E0,0E0,0E0,0E0,0E0,0E0,0E0,5.302957E1,6.497925E0,0E0,0E0,4.2239265E1,2.2131058E1,0E0,0E0,8.376755E0,2.7185871E1,0E0,0E0,0E0,0E0,0E0,0E0,0E0,0E0,0E0,0E0,0E0,0E0,0E0,0E0,0E0,0E0,0E0,0E0],"parents":[2147483647,0,0,1,1,2,2,3,3,4,4,5,5,6,6,7,7,8,8,9,9,11,11,12,12,13,13,15,15,16,16,17,17,21,21,22,22,23,23,24,24,27,27,28,28,29,29,30,30,33,33,34,34,35,35,36,36,41,41,42,42,43,43,44,44,45,45,46,46,47,47,48,48,49,49,51,51,54,54,55,55,56,56,57,57,61,61,66,66,73,73,74,74,77,77,78,78,81,81,82,82],"right_children":[2,4,6,8,10,12,14,16,18,20,-1,22,24,26,-1,28,30,32,-1,-1,-1,34,36,38,40,-1,-1,42,44,46,48,-1,-1,50,52,54,56,-1,-1,-1,-1,58,60,62,64,66,68,70,72,74,-1,76,-1,-1,78,80,82,84,-1,-1,-1,86,-1,-1,-1,-1,88,-1,-1,-1,-1,-1,-1,90,92,-1,-1,94,96,-1,-1,98,100,-1,-1,-1,-1,-1,-1,-1,-1,-1,-1,-1,-1,-1,-1,-1,-1,-1,-1],"split_conditions":[3E1,2.12E2,9.920422E2,4E0,9.920422E2,5.454E4,1.86E2,5.2E-1,1E-2,1E0,1.6420388E-1,8E-1,1E-2,8.04491E-2,1.6762382E-1,3E0,8.002762E2,2.9E1,1.6514178E-1,-1.6552922E-1,-1.0892527E-1,7.372807E2,8E-2,1E-2,3.19E3,-1.7308724E-1,-9.178411E-2,1.5600189E-2,9.7E-1,9E0,5E-2,1.6259338E-1,-1.5637824E-1,1.44E2,1E-2,2.07E2,2.43E2,1.7120607E-1,9.550973E-2,-1.6325176E-1,9.731139E-2,2E0,5.706772E-3,9.80831E-1,6.1E-1,9.941088E-1,9.920422E2,5.8E-1,1E0,1E-2,-1.6529138E-1,4.074204E-2,-1.6076118E-1,-1.6563068E-1,2.16E2,1.45E2,3.36E2,8E-2,1.1906468E-1,1.2420119E-2,1.5462323E-1,3E0,1.3858575E-1,1.9835439E-2,1.5880413E-1,1.6481742E-1,3.83E2,-1.6393653E-1,1.6390322E-1,7.8666985E-2,1.616138E-1,-7.897481E-2,-1.5204737E-1,3E-2,3.756496E0,2.0254355E-2,1.6553025E-1,2.12E2,4.7E1,-6.173379E-2,-1.6255246E-1,3.29E2,1E0,-1.1469317E-1,4.1330256E-2,-1.571765E-1,3.0893E-2,1.4142832E-1,3.1643562E-2,-4.8645437E-2,-1.5879719E-1,-1.4638214E-1,-1.6875505E-1,1.9476573E-1,-1.9389863E-1,-5.797944E-2,-1.7149624E-1,1.762203E-2,1.7324944E-1,-1.9303763E-1,1.5580979E-1],"split_indices":[2,10,1,4,1,2,2,13,12,2,0,13,12,12,0,10,20,10,0,0,0,20,14,14,0,0,0,17,15,2,14,0,0,10,12,2,2,0,0,0,0,4,13,12,16,15,1,12,18,13,0,18,0,0,2,2,2,15,0,0,0,4,0,0,0,0,20,0,0,0,0,0,0,12,5,0,0,10,10,0,0,2,0,0,0,0,0,0,0,0,0,0,0,0,0,0,0,0,0,0,0],"split_type":[0,0,0,0,0,0,0,0,0,0,0,0,0,0,0,0,0,0,0,0,0,0,0,0,0,0,0,0,0,0,0,0,0,0,0,0,0,0,0,0,0,0,0,0,0,0,0,0,0,0,0,0,0,0,0,0,0,0,0,0,0,0,0,0,0,0,0,0,0,0,0,0,0,0,0,0,0,0,0,0,0,0,0,0,0,0,0,0,0,0,0,0,0,0,0,0,0,0,0,0,0],"sum_hessian":[1.7894139E4,8.732189E3,9.161949E3,8.404224E3,3.279657E2,8.536169E3,6.2578E2,1.5321984E3,6.872025E3,2.6507538E2,6.28903E1,8.30215E3,2.3401907E2,1.905128E2,4.352672E2,5.950552E2,9.371431E2,2.6386896E1,6.845638E3,2.561291E2,8.946294E0,7.6597275E3,6.4242255E2,1.6052419E2,7.349488E1,1.8527013E2,5.2426705E0,2.2393784E2,3.7111734E2,8.8903735E2,4.810577E1,1.20715685E1,1.4315329E1,7.605559E3,5.4168636E1,5.429881E2,9.943449E1,1.5106062E2,9.463565E0,6.837833E1,5.116557E0,4.138272E1,1.8255511E2,3.4195874E2,2.9158604E1,7.995133E2,8.952407E1,3.2791805E1,1.5313966E1,1.819268E3,5.786291E3,2.7255064E1,2.6913572E1,3.032991E2,2.3968898E2,1.6313736E1,8.312075E1,2.9309097E1,1.2073625E1,5.606143E0,1.7694897E2,3.3473065E2,7.2280793E0,5.1607666E0,2.3997837E1,7.885951E2,1.0918233E1,1.7337381E1,7.218668E1,5.35385E0,2.7437956E1,5.2561927E0,1.0057774E1,3.483783E2,1.4708898E3,6.1345134E0,2.112055E1,5.640419E1,1.8328479E2,6.912342E0,9.401394E0,6.625582E1,1.6864931E1,2.4251217E1,5.05788E0,3.2295618E2,1.177447E1,5.1903505E0,5.7278824E0,2.0270348E2,1.456748E2,1.0578103E3,4.1307938E2,5.1172882E1,5.2313075E0,4.5466953E1,1.3781784E2,7.8093896E0,5.844643E1,5.730578E0,1.1134354E1],"tree_param":{"num_deleted":"0","num_feature":"23","num_nodes":"101","size_leaf_vector":"1"}},{"base_weights":[4.2012307E-5,9.7795475E-1,-9.252552E-1,1.0444591E0,-7.0917153E-1,-1.0255079E0,4.4973278E-1,1.0782148E0,-5.5050325E-1,-1.1484216E0,1.5977319E-1,-1.0717734E0,3.716174E-1,-1.193699E0,1.6290337E-1,7.075447E-1,1.1539241E0,-8.6000985E-1,8.766957E-1,-8.7990865E-2,-1.6136985E-1,-8.5921466E-1,-1.1543708E0,-1.0493778E0,1.1530312E0,-1.6797046E-1,-9.1928616E-2,-7.295042E-1,9.544806E-1,1.6117556E-1,-5.1277444E-2,-1.0035309E0,3.1934023E-1,-2.411425E-2,1.5953763E-1,-5.343179E-1,-1.0552667E0,-6.336449E-1,-1.1584611E0,-1.6031602E-1,7.295397E-2,5.308906E-1,1.6635108E-1,1.8827002E-1,-1.116083E0,1.102683E0,3.433083E-2,1.6006152E-1,-1.4898735E-1,-1.1308455E0,-2.4001881E-1,-2.944819E-2,1.16482355E-1,-1.6556966E-1,-2.1402074E-1,-1.0791774E0,-8.337237E-1,-3.2552395E-2,-1.7639317E-1,-1.6123328E-1,-4.553768E-2,1.5920114E-2,1.2367202E-1,-3.4094676E-1,9.3794954E-1,-1.2183199E0,1.2480089E-1,1.1481366E0,-8.284936E-2,-1.036339E0,1.6613142E-1,-9.072111E-2,-1.6145326E-1,8.808942E-2,-8.0734026E-1,1.2594724E-1,-1.1317319E0,-1.1189476E0,-8.773046E-1,-1.6273253E-1,-3.1447756E-1,-1.4723288E-1,7.3598063E-1,1.713225E-1,-1.9136934E-1,1.6135003E-1,4.123043E-2,-2.1345635E-1,-1.6172244E-1,1.6254443E-1,1.3821073E-1,-7.028195E-2,1.3078573E-1,4.9540795E-2,-1.5914442E-1,-5.7432342E-2,-1.4880529E-1,-7.736652E-2,5.1459216E-2,-8.504124E-2,-1.6509081E-1,-1.4888999E-1,-1.6161555E-1,2.3123652E-2,-1.3348174E-1,-1.3347228E-1,2.0586793E-1,1.4656237E-1,4.935397E-2],"categories":[],"categories_nodes":[],"categories_segments":[],"categories_sizes":[],"default_left":[0,0,0,0,0,0,0,0,0,0,0,0,0,0,0,0,0,0,0,0,0,0,0,0,0,0,0,0,0,0,0,0,0,0,0,0,0,0,0,0,0,0,0,0,0,0,0,0,0,0,0,0,0,0,0,0,0,0,0,0,0,0,0,0,0,0,0,0,0,0,0,0,0,0,0,0,0,0,0,0,0,0,0,0,0,0,0,0,0,0,0,0,0,0,0,0,0,0,0,0,0,0,0,0,0,0,0,0,0],"id":9,"left_children":[1,3,5,7,9,11,13,15,17,19,-1,21,23,25,-1,27,29,31,33,-1,-1,35,37,39,41,-1,-1,43,45,-1,47,49,51,-1,-1,53,55,57,59,-1,-1,61,-1,63,65,67,69,-1,-1,71,73,-1,-1,-1,75,77,79,81,-1,-1,-1,-1,-1,83,85,87,-1,89,91,93,-1,-1,-1,-1,95,97,99,101,103,-1,105,-1,107,-1,-1,-1,-1,-1,-1,-1,-1,-1,-1,-1,-1,-1,-1,-1,-1,-1,-1,-1,-1,-1,-1,-1,-1,-1,-1],"loss_changes":[1.4480762E4,8.737168E2,1.1339546E3,4.036206E2,2.426174E2,4.958125E2,6.6492255E2,2.0491504E2,6.95782E1,7.36969E-1,0E0,1.2926074E2,2.7482086E2,4.8646545E-1,0E0,4.4284247E2,3.676367E1,2.2078133E1,8.225454E0,0E0,0E0,1.3192896E2,1.0639648E1,1.4914093E1,3.6419373E0,0E0,0E0,6.523432E1,1.4501752E2,0E0,3.3266323E1,1.0891739E1,4.2243886E0,0E0,0E0,1.64701E2,5.966797E0,1.6678576E1,3.5029297E0,0E0,0E0,1.7086568E0,0E0,2.220957E1,2.7668625E1,4.9461548E1,1.8581972E2,0E0,0E0,6.555481E-1,9.273052E0,0E0,0E0,0E0,1.6506796E2,8.384033E0,2.245633E1,1.9338827E1,0E0,0E0,0E0,0E0,0E0,5.554341E1,2.9488525E0,3.7942505E-1,0E0,1.6484375E0,1.5503246E1,1.2108719E1,0E0,0E0,0E0,0E0,7.1397305E-1,6.458523E1,3.3916016E0,7.817383E-1,1.7086487E1,0E0,6.2497467E1,0E0,1.3275962E0,0E0,0E0,0E0,0E0,0E0,0E0,0E0,0E0,0E0,0E0,0E0,0E0,0E0,0E0,0E0,0E0,0E0,0E0,0E0,0E0,0E0,0E0,0E0,0E0,0E0,0E0],"parents":[2147483647,0,0,1,1,2,2,3,3,4,4,5,5,6,6,7,7,8,8,9,9,11,11,12,12,13,13,15,15,16,16,17,17,18,18,21,21,22,22,23,23,24,24,27,27,28,28,30,30,31,31,32,32,35,35,36,36,37,37,38,38,41,41,43,43,44,44,45,45,46,46,49,49,50,50,54,54,55,55,56,56,57,57,63,63,64,64,65,65,67,67,68,68,69,69,74,74,75,75,76,76,77,77,78,78,80,80,82,82],"right_children":[2,4,6,8,10,12,14,16,18,20,-1,22,24,26,-1,28,30,32,34,-1,-1,36,38,40,42,-1,-1,44,46,-1,48,50,52,-1,-1,54,56,58,60,-1,-1,62,-1,64,66,68,70,-1,-1,72,74,-1,-1,-1,76,78,80,82,-1,-1,-1,-1,-1,84,86,88,-1,90,92,94,-1,-1,-1,-1,96,98,100,102,104,-1,106,-1,108,-1,-1,-1,-1,-1,-1,-1,-1,-1,-1,-1,-1,-1,-1,-1,-1,-1,-1,-1,-1,-1,-1,-1,-1,-1,-1],"split_conditions":[3E1,2.12E2,9.920422E2,4E0,9.920422E2,1.6711E4,1.86E2,4E0,9E-2,9.5E-1,1.5977319E-1,1.4E2,9.9E-1,7.0217304E-2,1.6290337E-1,2.56E2,8.2713336E-1,3E0,3.2E-1,-8.7990865E-2,-1.6136985E-1,3E-2,4E0,3.19E3,3.34E2,-1.6797046E-1,-9.1928616E-2,7.9448535E2,9E0,1.6117556E-1,2.9E1,1.3E-1,1.5470282E0,-2.411425E-2,1.5953763E-1,2.23E2,7.9E-1,2.07E2,2.4E2,-1.6031602E-1,7.295397E-2,1.2E-1,1.6635108E-1,3.6E-1,7.6E-1,9.5E2,9.920422E2,1.6006152E-1,-1.4898735E-1,1.0920805E0,6.23E2,-2.944819E-2,1.16482355E-1,-1.6556966E-1,3E0,7.0951837E-3,6.7E-1,8.2E-1,-1.7639317E-1,-1.6123328E-1,-4.553768E-2,1.5920114E-2,1.2367202E-1,6.280835E-3,5E-2,2.6E-1,1.2480089E-1,8.023652E2,1.7E-1,1.1828979E-2,1.6613142E-1,-9.072111E-2,-1.6145326E-1,8.808942E-2,7E-1,2.07E2,4E0,3.36E2,2.2115821E-2,-1.6273253E-1,6.23E2,-1.4723288E-1,8.5E-1,1.713225E-1,-1.9136934E-1,1.6135003E-1,4.123043E-2,-2.1345635E-1,-1.6172244E-1,1.6254443E-1,1.3821073E-1,-7.028195E-2,1.3078573E-1,4.9540795E-2,-1.5914442E-1,-5.7432342E-2,-1.4880529E-1,-7.736652E-2,5.1459216E-2,-8.504124E-2,-1.6509081E-1,-1.4888999E-1,-1.6161555E-1,2.3123652E-2,-1.3348174E-1,-1.3347228E-1,2.0586793E-1,1.4656237E-1,4.935397E-2],"split_indices":[2,10,1,3,1,2,2,4,17,11,0,10,11,12,0,19,11,4,12,0,0,12,3,0,3,0,0,20,2,0,10,13,5,0,0,19,11,10,0,0,0,14,0,15,12,19,1,0,0,10,19,0,0,0,4,17,13,13,0,0,0,0,0,6,13,17,0,20,12,13,0,0,0,0,13,2,4,2,11,0,19,0,11,0,0,0,0,0,0,0,0,0,0,0,0,0,0,0,0,0,0,0,0,0,0,0,0,0,0],"split_type":[0,0,0,0,0,0,0,0,0,0,0,0,0,0,0,0,0,0,0,0,0,0,0,0,0,0,0,0,0,0,0,0,0,0,0,0,0,0,0,0,0,0,0,0,0,0,0,0,0,0,0,0,0,0,0,0,0,0,0,0,0,0,0,0,0,0,0,0,0,0,0,0,0,0,0,0,0,0,0,0,0,0,0,0,0,0,0,0,0,0,0,0,0,0,0,0,0,0,0,0,0,0,0,0,0,0,0,0,0],"sum_hessian":[1.6001319E4,7.779448E3,8.221871E3,7.4847886E3,2.946599E2,7.663375E3,5.584961E2,7.3299814E3,1.5480698E2,2.3862819E2,5.6031742E1,7.4179644E3,2.4541078E2,1.7020752E2,3.8828857E2,1.2449768E3,6.0850044E3,1.2754467E2,2.7262304E1,6.605281E0,2.320229E2,2.0790586E3,5.338906E3,8.6949974E1,1.584608E2,1.645874E2,5.620121E0,1.8227415E2,1.0627026E3,6.059882E3,2.5122953E1,1.1384E2,1.3704673E1,5.6569815E0,2.1605322E1,7.838276E2,1.295231E3,4.2824745E1,5.296081E3,8.184254E1,5.107436E0,1.1131855E1,1.4732895E2,5.4173702E1,1.2810046E2,9.1511316E2,1.4758951E2,1.147274E1,1.3650212E1,9.715792E1,1.668208E1,7.060406E0,6.644267E0,2.5620758E2,5.2762E2,1.1655631E3,1.296678E2,2.253471E1,2.0290035E1,5.2900703E3,6.0109186E0,5.759209E0,5.372646E0,3.207582E1,2.2097881E1,1.2228609E2,5.8143744E0,8.813534E2,3.3759777E1,7.681288E1,7.0776634E1,7.087853E0,9.007007E1,6.523028E0,1.0159051E1,3.8562662E2,1.4199341E2,9.699366E2,1.9562654E2,7.7927826E1,5.173998E1,9.488472E0,1.3046238E1,1.2655474E1,1.9420345E1,1.5811581E1,6.286301E0,1.4254407E1,1.0803168E2,7.7161707E2,1.0973634E2,2.4252066E1,9.507711E0,5.3622823E0,7.14506E1,5.0893507E0,5.0697002E0,1.012689E2,2.8435773E2,1.48125305E1,1.2718088E2,4.6950525E2,5.004313E2,1.4256575E1,1.8136998E2,3.8399803E1,1.3340174E1,6.1507287E0,6.8955092E0],"tree_param":{"num_deleted":"0","num_feature":"23","num_nodes":"109","size_leaf_vector":"1"}},{"base_weights":[1.11148816E-4,9.5429045E-1,-8.976681E-1,3.4393984E-1,1.1244112E0,-9.951436E-1,4.3681505E-1,-4.1948494E-1,9.871799E-1,-5.3920573E-1,1.5775664E-1,-1.0402064E0,3.5381746E-1,-1.1582952E0,1.5879048E-1,-8.037962E-1,6.812626E-1,1.0633478E0,-4.01957E-2,-9.099721E-1,1.4035982E-1,-1.0802093E0,-5.8545923E-1,1.1106579E0,-1.017097E0,-1.632413E-1,-8.663318E-2,-9.474354E-1,9.296218E-1,-7.453053E-1,9.8967105E-1,1.1040995E0,7.222192E-1,-8.841339E-1,1.5417673E-1,-1.5149808E-1,-1.9114902E-2,-9.084606E-1,-1.1250932E0,-8.43098E-1,5.68767E-1,1.6234691E-1,5.390155E-1,-1.5589568E-1,-7.3904645E-1,-9.775381E-1,1.9241433E-1,1.5338153E-1,-2.938409E-2,-1.6558719E-1,-1.6936015E-1,1.0347105E0,-1.2670761E-2,1.5721753E-1,6.992598E-1,-1.514005E-1,1.5566431E-1,2.4261627E-2,-1.5207608E-1,-9.902651E-1,-4.9454314E-1,-1.1276551E0,5.4223463E-2,-1.5789819E-1,-4.7992936E-1,-8.047566E-1,8.731539E-1,7.0210937E-3,1.3257213E-1,-1.4978139E-1,-3.2556918E-1,-1.0259804E0,-1.0208867E-1,9.859088E-2,-1.165524E-1,1.6478497E-1,8.73856E-1,-1.2694046E-1,9.912495E-1,-8.052124E-1,-1.0702381E0,-8.958654E-1,5.30432E-2,-1.1363909E0,-1.0618402E0,1.0123116E0,-1.0028998E0,-3.8858414E-2,-1.5399447E-1,1.0726566E0,1.1249431E-1,2.8962512E-2,-1.2405359E-1,-1.4819153E-1,-6.246964E-2,-6.804263E-2,1.0735918E-1,-2.3229785E-2,1.4114223E-1,1.5357712E-1,5.583973E-2,-1.4607984E-1,-5.5655524E-2,-1.5688114E-1,-1.2435034E-1,-1.4987515E-1,1.3226496E-2,1.3572925E-1,-1.1595222E-1,-1.581143E-1,-9.56E-2,-9.220455E-2,-1.5379338E-1,6.174909E-2,1.5837803E-1,-1.0078254E-1,-1.5741059E-1,1.8826079E-2,1.7076936E-1,-1.2129458E-1,1.1669263E-1],"categories":[],"categories_nodes":[],"categories_segments":[],"categories_sizes":[],"default_left":[0,0,0,0,0,0,0,0,0,0,0,0,0,0,0,0,0,0,0,0,0,0,0,0,0,0,0,0,0,0,0,0,0,0,0,0,0,0,0,0,0,0,0,0,0,0,0,0,0,0,0,0,0,0,0,0,0,0,0,0,0,0,0,0,0,0,0,0,0,0,0,0,0,0,0,0,0,0,0,0,0,0,0,0,0,0,0,0,0,0,0,0,0,0,0,0,0,0,0,0,0,0,0,0,0,0,0,0,0,0,0,0,0,0,0,0,0,0,0,0,0],"id":10,"left_children":[1,3,5,7,9,11,13,15,17,19,-1,21,23,25,-1,27,29,31,33,35,-1,37,39,41,43,-1,-1,45,47,49,51,53,55,57,-1,-1,-1,59,61,63,65,-1,67,-1,69,71,-1,-1,-1,-1,73,75,-1,-1,77,-1,-1,-1,-1,79,81,83,-1,-1,85,87,89,-1,-1,-1,91,93,95,-1,-1,-1,97,-1,99,101,103,105,107,109,111,113,115,-1,-1,117,119,-1,-1,-1,-1,-1,-1,-1,-1,-1,-1,-1,-1,-1,-1,-1,-1,-1,-1,-1,-1,-1,-1,-1,-1,-1,-1,-1,-1,-1,-1],"loss_changes":[1.2238041E4,7.1871045E2,9.578921E2,7.424156E2,9.0103516E1,4.1736377E2,5.6552515E2,2.931376E2,6.423749E1,1.976168E1,0E0,1.2012598E2,2.3198265E2,5.479126E-1,0E0,1.2864157E2,7.9725075E1,9.820251E0,5.6809803E1,3.5925446E0,0E0,4.6004395E1,1.6074074E2,4.0321045E0,1.4722443E0,0E0,0E0,3.46373E1,8.094822E0,8.130245E0,7.300888E0,6.472473E0,6.190344E1,7.671631E0,0E0,0E0,0E0,4.24834E1,1.9195312E1,4.6261505E1,4.206793E1,0E0,2.954105E0,0E0,3.086917E0,1.9780273E1,0E0,0E0,0E0,0E0,9.597983E0,2.3996582E0,0E0,0E0,2.1721878E1,0E0,0E0,0E0,0E0,1.4806152E1,4.6511253E1,1.5668945E0,0E0,0E0,1.5582336E2,2.6260033E0,1.22429085E1,0E0,0E0,0E0,3.9646158E0,9.663788E0,9.073301E0,0E0,0E0,0E0,1.0807343E1,0E0,2.0847893E0,3.1703827E1,6.486267E0,2.2094658E1,7.477128E1,2.1972656E-1,9.456787E0,3.2310677E0,4.468109E0,0E0,0E0,9.209015E0,1.364204E1,0E0,0E0,0E0,0E0,0E0,0E0,0E0,0E0,0E0,0E0,0E0,0E0,0E0,0E0,0E0,0E0,0E0,0E0,0E0,0E0,0E0,0E0,0E0,0E0,0E0,0E0,0E0,0E0,0E0,0E0],"parents":[2147483647,0,0,1,1,2,2,3,3,4,4,5,5,6,6,7,7,8,8,9,9,11,11,12,12,13,13,15,15,16,16,17,17,18,18,19,19,21,21,22,22,23,23,24,24,27,27,28,28,29,29,30,30,31,31,32,32,33,33,37,37,38,38,39,39,40,40,42,42,44,44,45,45,50,50,51,51,54,54,59,59,60,60,61,61,64,64,65,65,66,66,70,70,71,71,72,72,76,76,78,78,79,79,80,80,81,81,82,82,83,83,84,84,85,85,86,86,89,89,90,90],"right_children":[2,4,6,8,10,12,14,16,18,20,-1,22,24,26,-1,28,30,32,34,36,-1,38,40,42,44,-1,-1,46,48,50,52,54,56,58,-1,-1,-1,60,62,64,66,-1,68,-1,70,72,-1,-1,-1,-1,74,76,-1,-1,78,-1,-1,-1,-1,80,82,84,-1,-1,86,88,90,-1,-1,-1,92,94,96,-1,-1,-1,98,-1,100,102,104,106,108,110,112,114,116,-1,-1,118,120,-1,-1,-1,-1,-1,-1,-1,-1,-1,-1,-1,-1,-1,-1,-1,-1,-1,-1,-1,-1,-1,-1,-1,-1,-1,-1,-1,-1,-1,-1],"split_conditions":[3E1,5E0,9.920422E2,5.2E-1,1E-2,1.6711E4,1.86E2,1.4E-1,8.002762E2,5E-1,1.5775664E-1,8E-1,1E-2,7.0217304E-2,1.5879048E-1,9.418758E-1,9E-2,9E0,1E-2,7E-2,1.4035982E-1,1.5470282E0,7E-2,2.1E-1,7.0217304E-2,-1.632413E-1,-8.663318E-2,9.920422E2,4E-2,1.2E-1,8E0,3.1E-1,9.920422E2,7.4630946E-2,1.5417673E-1,-1.5149808E-1,-1.9114902E-2,7.0951837E-3,8.8E-1,2.07E2,2.45E2,1.6234691E-1,8E-2,-1.5589568E-1,2.18708E6,3E0,1.9241433E-1,1.5338153E-1,-2.938409E-2,-1.6558719E-1,1E-2,9.97E2,-1.2670761E-2,1.5721753E-1,1E-1,-1.514005E-1,1.5566431E-1,2.4261627E-2,-1.5207608E-1,5.706772E-3,1.111E3,1.4E-1,5.4223463E-2,-1.5789819E-1,2.16E2,1.45E2,3.36E2,7.0210937E-3,1.3257213E-1,-1.4978139E-1,2E-2,8.04491E-2,4.2292714E-2,9.859088E-2,-1.165524E-1,1.6478497E-1,3E-1,-1.2694046E-1,3.83E2,9.84E2,1.3E-1,4.85877E-3,1.274E3,1.2286E4,9.36E2,1E-2,3.36E2,-3.8858414E-2,-1.5399447E-1,3.29E2,1.1E-1,2.8962512E-2,-1.2405359E-1,-1.4819153E-1,-6.246964E-2,-6.804263E-2,1.0735918E-1,-2.3229785E-2,1.4114223E-1,1.5357712E-1,5.583973E-2,-1.4607984E-1,-5.5655524E-2,-1.5688114E-1,-1.2435034E-1,-1.4987515E-1,1.3226496E-2,1.3572925E-1,-1.1595222E-1,-1.581143E-1,-9.56E-2,-9.220455E-2,-1.5379338E-1,6.174909E-2,1.5837803E-1,-1.0078254E-1,-1.5741059E-1,1.8826079E-2,1.7076936E-1,-1.2129458E-1,1.1669263E-1],"split_indices":[2,4,1,13,12,2,2,12,20,6,0,13,12,12,0,15,17,2,12,13,0,5,14,13,12,0,0,1,14,13,2,15,1,18,0,0,0,17,9,2,2,0,14,0,2,4,0,0,0,0,14,20,0,0,16,0,0,0,0,13,2,13,0,0,2,2,2,0,0,0,14,12,12,0,0,0,12,0,20,2,13,8,2,2,1,12,2,0,0,2,14,0,0,0,0,0,0,0,0,0,0,0,0,0,0,0,0,0,0,0,0,0,0,0,0,0,0,0,0,0,0],"split_type":[0,0,0,0,0,0,0,0,0,0,0,0,0,0,0,0,0,0,0,0,0,0,0,0,0,0,0,0,0,0,0,0,0,0,0,0,0,0,0,0,0,0,0,0,0,0,0,0,0,0,0,0,0,0,0,0,0,0,0,0,0,0,0,0,0,0,0,0,0,0,0,0,0,0,0,0,0,0,0,0,0,0,0,0,0,0,0,0,0,0,0,0,0,0,0,0,0,0,0,0,0,0,0,0,0,0,0,0,0,0,0,0,0,0,0,0,0,0,0,0,0],"sum_hessian":[1.4284057E4,6.9244927E3,7.359564E3,1.5100033E3,5.4144893E3,6.8588247E3,5.00739E2,6.9065375E2,8.1934955E2,3.1821365E1,5.382668E3,6.6373296E3,2.2149529E2,1.532774E2,3.4746158E2,5.1212274E2,1.7853099E2,7.6276447E2,5.658511E1,2.600662E1,5.814744E0,6.099407E3,5.379224E2,1.4283194E2,7.866335E1,1.4780914E2,5.4682655E0,4.73352E2,3.877076E1,3.1483753E1,1.4704724E2,6.793693E2,8.339511E1,3.2753735E1,2.3831375E1,2.0773245E1,5.233377E0,1.2681321E3,4.831275E3,4.399821E2,9.794035E1,1.2899654E2,1.3835409E1,5.5062946E1,2.3600407E1,4.678902E2,5.4617753E0,3.3688053E1,5.0827045E0,1.7153025E1,1.4330729E1,1.4120538E2,5.8418484E0,6.361429E2,4.3226448E1,1.4684729E1,6.871038E1,5.43585E0,2.7317883E1,1.0577013E3,2.1043083E2,4.823374E3,7.9009995E0,2.4261134E2,1.9737074E2,1.7468987E1,8.047137E1,6.863217E0,6.9721923E0,1.2103209E1,1.1497197E1,4.4319446E2,2.4695753E1,6.168686E0,8.162043E0,6.973543E1,7.146996E1,6.3029585E0,3.6923492E1,3.225073E2,7.35194E2,1.21066216E2,8.9364624E1,4.243813E3,5.7956085E2,5.0977146E1,1.463936E2,7.086692E0,1.0382295E1,6.342607E1,1.7045296E1,6.244528E0,5.25267E0,4.139377E2,2.925673E1,1.7419744E1,7.276008E0,8.505634E0,6.2964333E1,3.0252142E1,6.6713486E0,1.9990587E2,1.2260144E2,5.4942114E2,1.8577281E2,1.02224236E2,1.884198E1,4.3741234E1,4.562339E1,4.2373223E3,6.4908795E0,5.918793E1,5.203729E2,1.0102327E1,4.087482E1,4.845997E1,9.793363E1,9.279147E0,5.4146923E1,7.152239E0,9.893057E0],"tree_param":{"num_deleted":"0","num_feature":"23","num_nodes":"121","size_leaf_vector":"1"}},{"base_weights":[6.4454926E-4,9.3388444E-1,-8.7434447E-1,9.9790764E-1,-6.8677634E-1,-9.3007857E-1,9.5084226E-1,5.299182E-1,1.109301E0,-1.5533602E-1,8.4246045E-1,-9.682221E-1,4.539937E-1,1.5405588E-1,-1.2775452E-1,-1.5623792E-1,1.0171193E0,1.5500192E-1,-1.22256264E-1,1.5290296E-1,-1.19372964E-1,-4.7892633E-1,-1.059046E0,-9.260245E-1,1.0914853E0,7.620772E-1,-7.108589E-1,1.0388598E0,-4.0729113E-2,1.4882186E-1,-1.4376442E-1,-6.257889E-1,1.0596914E0,-1.0995061E0,-7.0332927E-1,-1.5125619E-1,7.131349E-2,6.937384E-2,1.579484E-1,-4.8368894E-2,9.9012834E-1,-8.854365E-1,8.8921875E-1,1.0716414E0,4.2267796E-1,-1.149749E-1,9.3636334E-2,-9.060514E-1,-3.1053303E-2,6.675948E-2,1.5235865E-1,-1.1043919E0,5.207935E-1,-1.0858856E0,3.3833593E-1,-4.9028632E-1,1.0805788E-1,1.053848E0,-2.5002602E-3,-9.835011E-1,1.3052917E-1,-7.4259494E-3,1.5126553E-1,1.1051561E0,7.4848825E-1,1.4407101E-1,-1.1998548E-1,-9.4554216E-1,1.4446674E-1,-1.555234E-1,4.2549777E-1,-1.1064055E0,-7.219496E-3,-6.181182E-2,1.4961067E-1,-1.5591434E-1,-3.0306265E-1,1.976613E-1,-6.947572E-1,-9.059349E-4,-1.3135041E-1,3.0309178E-2,1.5148439E-1,-1.4692245E-1,8.509546E-3,-1.0472111E-1,9.78676E-2,1.5513457E-1,6.563936E-2,-7.7883124E-2,1.521282E-1,-1.2073191E-1,-1.5446813E-1,1.310747E-1,-3.8056634E-2,-1.3130195E-1,-1.549746E-1,-1.22864135E-1,1.4341529E-1,-1.4989597E-1,1.2250745E-1],"categories":[],"categories_nodes":[],"categories_segments":[],"categories_sizes":[],"default_left":[0,0,0,0,0,0,0,0,0,0,0,0,0,0,0,0,0,0,0,0,0,0,0,0,0,0,0,0,0,0,0,0,0,0,0,0,0,0,0,0,0,0,0,0,0,0,0,0,0,0,0,0,0,0,0,0,0,0,0,0,0,0,0,0,0,0,0,0,0,0,0,0,0,0,0,0,0,0,0,0,0,0,0,0,0,0,0,0,0,0,0,0,0,0,0,0,0,0,0,0,0],"id":11,"left_children":[1,3,5,7,9,11,13,15,17,-1,19,21,23,-1,-1,25,27,-1,29,-1,-1,31,33,35,37,39,41,43,45,-1,-1,47,49,51,53,-1,-1,-1,-1,55,57,59,61,63,65,-1,-1,67,69,-1,-1,71,73,75,77,79,-1,81,-1,83,85,-1,-1,87,89,-1,-1,91,-1,-1,93,95,-1,-1,-1,-1,97,-1,99,-1,-1,-1,-1,-1,-1,-1,-1,-1,-1,-1,-1,-1,-1,-1,-1,-1,-1,-1,-1,-1,-1],"loss_changes":[1.0393618E4,6.3975635E2,6.6913477E2,3.08313E2,1.5530432E2,3.3699854E2,5.825496E1,3.8164392E2,3.0994629E1,0E0,2.3709713E1,2.7521338E2,1.5202649E2,0E0,0E0,2.4231381E2,1.5392761E1,0E0,2.4102957E1,0E0,0E0,2.2056964E2,7.4529785E1,1.3293247E1,2.523941E0,3.317305E1,8.360333E1,1.2758606E1,8.640057E0,0E0,0E0,1.4815512E2,1.243454E0,3.7750977E1,2.1440662E2,0E0,0E0,0E0,0E0,1.5083949E1,9.006561E0,2.6810242E1,5.6070766E0,5.8915405E0,2.8240208E1,0E0,0E0,4.7388824E1,1.4233476E2,0E0,0E0,9.865234E0,8.40492E0,1.0495453E1,1.6325116E2,5.8971376E0,0E0,3.6568146E0,0E0,1.868428E1,1.29155655E1,0E0,0E0,3.1378174E0,2.8357883E1,0E0,0E0,6.614929E0,0E0,0E0,7.3269196E1,4.9663086E0,0E0,0E0,0E0,0E0,1.5075296E1,0E0,4.6156082E1,0E0,0E0,0E0,0E0,0E0,0E0,0E0,0E0,0E0,0E0,0E0,0E0,0E0,0E0,0E0,0E0,0E0,0E0,0E0,0E0,0E0,0E0],"parents":[2147483647,0,0,1,1,2,2,3,3,4,4,5,5,6,6,7,7,8,8,10,10,11,11,12,12,15,15,16,16,18,18,21,21,22,22,23,23,24,24,25,25,26,26,27,27,28,28,31,31,32,32,33,33,34,34,39,39,40,40,41,41,42,42,43,43,44,44,47,47,48,48,51,51,52,52,53,53,54,54,55,55,57,57,59,59,60,60,63,63,64,64,67,67,70,70,71,71,76,76,78,78],"right_children":[2,4,6,8,10,12,14,16,18,-1,20,22,24,-1,-1,26,28,-1,30,-1,-1,32,34,36,38,40,42,44,46,-1,-1,48,50,52,54,-1,-1,-1,-1,56,58,60,62,64,66,-1,-1,68,70,-1,-1,72,74,76,78,80,-1,82,-1,84,86,-1,-1,88,90,-1,-1,92,-1,-1,94,96,-1,-1,-1,-1,98,-1,100,-1,-1,-1,-1,-1,-1,-1,-1,-1,-1,-1,-1,-1,-1,-1,-1,-1,-1,-1,-1,-1,-1],"split_conditions":[3E1,2.12E2,3.39E2,5E0,1E0,5.454E4,4E0,5.2E-1,8.2713336E-1,-1.5533602E-1,4E0,4E0,9.9E-1,1.5405588E-1,-1.2775452E-1,3E0,4E0,1.5500192E-1,2.9E1,1.5290296E-1,-1.19372964E-1,3.6E1,1.111E3,3.19E3,3.34E2,1.5600189E-2,9.7E-1,9.97E2,3.65E2,1.4882186E-1,-1.4376442E-1,7.9E-1,4.8E1,7.9448535E2,2.424E3,-1.5125619E-1,7.131349E-2,6.937384E-2,1.579484E-1,2E0,1.24182634E-1,3E-1,5E-1,9E0,6E-2,-1.149749E-1,9.3636334E-2,1E0,2.07E2,6.675948E-2,1.5235865E-1,1.4857E4,7.500174E-1,1.5E-1,3.176E3,4E0,1.0805788E-1,5.706772E-3,-2.5002602E-3,3E0,7.0951837E-3,-7.4259494E-3,1.5126553E-1,9.941088E-1,2.1E-1,1.4407101E-1,-1.1998548E-1,1.058E3,1.4446674E-1,-1.555234E-1,3.36E2,1.0926067E-1,-7.219496E-3,-6.181182E-2,1.4961067E-1,-1.5591434E-1,2.9E-1,1.976613E-1,8.5E-1,-9.059349E-4,-1.3135041E-1,3.0309178E-2,1.5148439E-1,-1.4692245E-1,8.509546E-3,-1.0472111E-1,9.78676E-2,1.5513457E-1,6.563936E-2,-7.7883124E-2,1.521282E-1,-1.2073191E-1,-1.5446813E-1,1.310747E-1,-3.8056634E-2,-1.3130195E-1,-1.549746E-1,-1.22864135E-1,1.4341529E-1,-1.4989597E-1,1.2250745E-1],"split_indices":[2,10,4,4,2,2,3,13,11,0,3,3,11,0,0,10,3,0,10,0,0,5,2,0,3,17,15,20,3,0,0,11,4,20,3,0,0,0,0,4,11,12,16,2,14,0,0,22,2,0,0,0,17,17,3,3,0,13,0,4,17,0,0,15,14,0,0,2,0,0,2,11,0,0,0,0,11,0,11,0,0,0,0,0,0,0,0,0,0,0,0,0,0,0,0,0,0,0,0,0,0],"split_type":[0,0,0,0,0,0,0,0,0,0,0,0,0,0,0,0,0,0,0,0,0,0,0,0,0,0,0,0,0,0,0,0,0,0,0,0,0,0,0,0,0,0,0,0,0,0,0,0,0,0,0,0,0,0,0,0,0,0,0,0,0,0,0,0,0,0,0,0,0,0,0,0,0,0,0,0,0,0,0,0,0,0,0,0,0,0,0,0,0,0,0,0,0,0,0,0,0,0,0,0,0],"sum_hessian":[1.2726313E4,6.158139E3,6.568174E3,5.9244805E3,2.336586E2,6.3740264E3,1.9414752E2,1.1401594E3,4.7843213E3,1.8257205E2,5.108654E1,6.2033687E3,1.7065758E2,1.7949136E2,1.4656155E1,4.7369882E2,6.6646063E2,4.764161E3,2.0159956E1,4.468798E1,6.398563E0,9.7218646E2,5.2311826E3,5.378127E1,1.16876305E2,1.7822623E2,2.954726E2,6.530571E2,1.3403458E1,8.658827E0,1.1501128E1,8.880175E2,8.416889E1,4.6950645E3,5.3611816E2,4.8570812E1,5.210459E0,8.970845E0,1.07905464E2,3.931101E1,1.3891522E2,2.6680884E2,2.866374E1,6.193669E2,3.369025E1,6.305019E0,7.0984383E0,6.032291E2,2.847884E2,5.739113E0,7.842978E1,4.681267E3,1.3797282E1,3.9208188E2,1.4403632E2,2.5867065E1,1.3443942E1,1.3061409E2,8.301133E0,2.4335164E2,2.3457201E1,5.1122537E0,2.3551487E1,5.589751E2,6.0391796E1,2.2939997E1,1.0750255E1,5.9172766E2,1.1501476E1,8.379326E1,2.0099515E2,4.672277E3,8.99016E0,5.1095686E0,8.687714E0,3.7479135E2,1.7290527E1,7.013812E1,7.3898186E1,1.3016728E1,1.2850338E1,5.5968537E0,1.25017235E2,2.274591E2,1.5892534E1,9.106495E0,1.4350706E1,5.492486E2,9.726492E0,1.2481969E1,4.790983E1,4.0712842E2,1.8459926E2,1.1534994E2,8.564521E1,2.2339767E2,4.448879E3,1.2284776E1,5.005752E0,5.9700047E1,1.4198138E1],"tree_param":{"num_deleted":"0","num_feature":"23","num_nodes":"101","size_leaf_vector":"1"}},{"base_weights":[-1.361946E-3,9.1544425E-1,-8.545811E-1,9.7818756E-1,-6.728927E-1,-9.4877255E-1,4.237691E-1,1.0127932E0,-4.8829448E-1,-1.5147096E-1,1.5015292E-1,-9.9212307E-1,3.3370736E-1,-1.1078237E0,1.1068988E0,1.062202E0,6.007081E-1,4.1963166E-1,-8.8028556E-1,-7.4859625E-1,-1.0924921E0,1.0439452E0,-9.4854176E-1,-1.5686531E-1,-7.7007115E-2,7.510012E-2,1.551385E-1,7.545588E-1,1.0793201E0,-2.045614E-1,1.532834E-1,-4.8520663E-3,1.3915202E-1,-9.4633156E-1,1.8345077E-2,-4.2347872E-1,-9.5685935E-1,-5.9568477E-1,-1.0970016E0,1.5437976E-1,4.759665E-1,-1.5003477E-1,6.3502945E-2,9.717853E-1,-9.445486E-1,1.084462E0,6.61687E-1,-5.710184E-1,9.640649E-1,-4.082338E-1,1.1950976E-1,-5.839274E-1,-1.0260648E0,-1.5504E-1,-1.3702294E-1,-9.7987175E-1,-6.150287E-1,-4.7235385E-2,-1.7100836E-1,-1.5266706E-1,-6.9755085E-2,-4.050027E-2,1.462453E-1,7.7857924E-1,1.505356E-1,-1.7135201E-1,-4.159106E-2,1.5237418E-1,1.0203028E0,-1.605335E-1,9.98983E-1,-9.131216E-1,1.4663151E-1,1.5161374E-1,2.7634779E-2,-1.5495756E-1,6.3030705E-2,2.5936969E-2,-1.4517784E-1,-1.519107E-1,-6.875618E-1,2.4289367E-1,-4.8734125E-1,-8.8710624E-1,-1.0619831E0,7.7704325E-2,-7.8996134E-1,-1.380556E-1,9.5304415E-2,1.5239383E-1,2.400111E-2,8.004461E-2,1.5075377E-1,5.3351313E-2,1.5033072E-1,-1.3616528E-1,-4.8388854E-2,-1.3546838E-1,-4.2360406E-2,-1.2974618E-1,5.297633E-2,-1.1487399E-1,6.710575E-2,-1.3446155E-1,5.0223833E-1,-1.5230386E-1,-1.1279877E-1,-1.2880096E-1,4.979234E-2],"categories":[],"categories_nodes":[],"categories_segments":[],"categories_sizes":[],"default_left":[0,0,0,0,0,0,0,0,0,0,0,0,0,0,0,0,0,0,0,0,0,0,0,0,0,0,0,0,0,0,0,0,0,0,0,0,0,0,0,0,0,0,0,0,0,0,0,0,0,0,0,0,0,0,0,0,0,0,0,0,0,0,0,0,0,0,0,0,0,0,0,0,0,0,0,0,0,0,0,0,0,0,0,0,0,0,0,0,0,0,0,0,0,0,0,0,0,0,0,0,0,0,0,0,0,0,0,0,0],"id":12,"left_children":[1,3,5,7,9,11,13,15,17,-1,-1,19,21,23,25,27,29,31,33,35,37,39,41,-1,-1,-1,-1,43,45,47,-1,49,-1,51,-1,53,55,57,59,-1,61,-1,-1,63,65,67,69,71,73,75,-1,77,79,-1,81,83,85,87,-1,-1,-1,-1,-1,89,-1,-1,-1,-1,91,-1,93,95,-1,-1,-1,-1,-1,-1,-1,-1,97,99,101,103,105,-1,107,-1,-1,-1,-1,-1,-1,-1,-1,-1,-1,-1,-1,-1,-1,-1,-1,-1,-1,-1,-1,-1,-1],"loss_changes":[8.844528E3,5.438179E2,7.055752E2,2.6659717E2,1.52703E2,3.036006E2,4.2245032E2,1.0366943E2,4.363183E1,0E0,0E0,1.2815967E2,1.6410153E2,7.648773E-1,7.605896E-1,2.3269531E1,2.2264267E2,9.211147E0,5.8222504E0,1.0408783E2,7.7128906E0,3.818016E0,1.2275856E1,0E0,0E0,0E0,0E0,9.111565E1,8.581055E0,9.142997E1,0E0,8.21738E0,0E0,1.7161789E0,0E0,1.1953367E2,6.7907715E0,1.23826685E1,1.09375E0,0E0,6.4085183E0,0E0,0E0,3.7993927E0,4.867405E0,1.9487305E0,3.498082E1,9.114161E1,4.708843E0,1.0274061E1,0E0,6.137681E0,6.921005E-1,0E0,5.7141506E1,5.7526245E0,1.3165224E1,1.4686811E1,0E0,0E0,0E0,0E0,0E0,1.5696251E1,0E0,0E0,0E0,0E0,1.7759644E1,0E0,1.9615631E0,4.6748276E0,0E0,0E0,0E0,0E0,0E0,0E0,0E0,0E0,1.1552253E0,3.3823364E1,7.372212E1,1.5369278E2,2.947876E0,0E0,8.8274E0,0E0,0E0,0E0,0E0,0E0,0E0,0E0,0E0,0E0,0E0,0E0,0E0,0E0,0E0,0E0,0E0,0E0,0E0,0E0,0E0,0E0,0E0],"parents":[2147483647,0,0,1,1,2,2,3,3,4,4,5,5,6,6,7,7,8,8,11,11,12,12,13,13,14,14,15,15,16,16,17,17,18,18,19,19,20,20,21,21,22,22,27,27,28,28,29,29,31,31,33,33,35,35,36,36,37,37,38,38,40,40,43,43,44,44,45,45,46,46,47,47,48,48,49,49,51,51,52,52,54,54,55,55,56,56,57,57,63,63,68,68,70,70,71,71,80,80,81,81,82,82,83,83,84,84,86,86],"right_children":[2,4,6,8,10,12,14,16,18,-1,-1,20,22,24,26,28,30,32,34,36,38,40,42,-1,-1,-1,-1,44,46,48,-1,50,-1,52,-1,54,56,58,60,-1,62,-1,-1,64,66,68,70,72,74,76,-1,78,80,-1,82,84,86,88,-1,-1,-1,-1,-1,90,-1,-1,-1,-1,92,-1,94,96,-1,-1,-1,-1,-1,-1,-1,-1,98,100,102,104,106,-1,108,-1,-1,-1,-1,-1,-1,-1,-1,-1,-1,-1,-1,-1,-1,-1,-1,-1,-1,-1,-1,-1,-1],"split_conditions":[3E1,2.12E2,9.920422E2,4E0,9.920422E2,1.6711E4,1.86E2,1E-2,8.89E2,-1.5147096E-1,1.5015292E-1,1.37E2,1E-2,6.000665E-2,3E0,3.1660832E-2,9.920422E2,1.952863E-1,8E-2,3E-2,4E0,2.1E-1,3.19E3,-1.5686531E-1,-7.7007115E-2,7.510012E-2,1.551385E-1,7.9448535E2,9E0,5.2E-1,1.532834E-1,1E0,1.3915202E-1,3.7E1,1.8345077E-2,2.23E2,5.901239E-2,2.07E2,2.01E2,1.5437976E-1,6.91E2,-1.5003477E-1,6.3502945E-2,9.7E-1,3.37E2,1E-2,2E1,9.80831E-1,1.1E-1,3.5E-1,1.1950976E-1,5.863623E0,3.7044666E-3,-1.5504E-1,4.8E1,3.36E2,8E-2,8.2E-1,-1.7100836E-1,-1.5266706E-1,-6.9755085E-2,-4.050027E-2,1.462453E-1,9.36E2,1.505356E-1,-1.7135201E-1,-4.159106E-2,1.5237418E-1,4.82E2,-1.605335E-1,1E0,1.4E-1,1.4663151E-1,1.5161374E-1,2.7634779E-2,-1.5495756E-1,6.3030705E-2,2.5936969E-2,-1.4517784E-1,-1.519107E-1,5.0308682E-2,7.8E1,1.198E3,3.34E2,2.424E3,7.7704325E-2,8.9E1,-1.380556E-1,9.5304415E-2,1.5239383E-1,2.400111E-2,8.004461E-2,1.5075377E-1,5.3351313E-2,1.5033072E-1,-1.3616528E-1,-4.8388854E-2,-1.3546838E-1,-4.2360406E-2,-1.2974618E-1,5.297633E-2,-1.1487399E-1,6.710575E-2,-1.3446155E-1,5.0223833E-1,-1.5230386E-1,-1.1279877E-1,